digraph Tree {
node [shape=box, style="rounded", color="black", fontname="helvetica"] ;
edge [fontname="helvetica"] ;
0 [label="surface_rpm <= 168.8\nsquared_error = 3049.5\nsamples = 3509\nvalue = 107.1"] ;
1 [label="drillbit_size <= 15.5\nsquared_error = 1356.4\nsamples = 2256\nvalue = 83.3"] ;
0 -> 1 [labeldistance=2.5, labelangle=45, headlabel="True"] ;
2 [label="surface_rpm <= 62.9\nsquared_error = 1077.9\nsamples = 1245\nvalue = 69.2"] ;
1 -> 2 ;
3 [label="surface_weight_on_bit <= 36.5\nsquared_error = 15126.4\nsamples = 6\nvalue = 318.0"] ;
2 -> 3 ;
4 [label="surface_rpm <= 61.2\nsquared_error = 9150.7\nsamples = 5\nvalue = 273.9"] ;
3 -> 4 ;
5 [label="min_depth <= 22455.5\nsquared_error = 254.4\nsamples = 2\nvalue = 133.7"] ;
4 -> 5 ;
6 [label="squared_error = 0.0\nsamples = 1\nvalue = 149.7"] ;
5 -> 6 ;
7 [label="squared_error = 0.0\nsamples = 1\nvalue = 117.8"] ;
5 -> 7 ;
8 [label="surface_rpm <= 61.3\nsquared_error = 3391.0\nsamples = 3\nvalue = 320.6"] ;
4 -> 8 ;
9 [label="squared_error = 0.0\nsamples = 1\nvalue = 448.3"] ;
8 -> 9 ;
10 [label="min_depth <= 21645.2\nsquared_error = 152.0\nsamples = 2\nvalue = 295.0"] ;
8 -> 10 ;
11 [label="squared_error = 0.0\nsamples = 1\nvalue = 279.9"] ;
10 -> 11 ;
12 [label="squared_error = -0.0\nsamples = 1\nvalue = 305.1"] ;
10 -> 12 ;
13 [label="squared_error = 0.0\nsamples = 1\nvalue = 494.7"] ;
3 -> 13 ;
14 [label="surface_rpm <= 143.2\nsquared_error = 685.2\nsamples = 1239\nvalue = 67.9"] ;
2 -> 14 ;
15 [label="formation_id_formation_222 <= 0.5\nsquared_error = 314.8\nsamples = 662\nvalue = 56.0"] ;
14 -> 15 ;
16 [label="bit_model_id_bit_model_29 <= 0.5\nsquared_error = 270.2\nsamples = 617\nvalue = 54.0"] ;
15 -> 16 ;
17 [label="surface_rpm <= 111.5\nsquared_error = 222.3\nsamples = 572\nvalue = 52.4"] ;
16 -> 17 ;
18 [label="min_depth <= 25170.0\nsquared_error = 142.9\nsamples = 128\nvalue = 42.1"] ;
17 -> 18 ;
19 [label="max_depth <= 20354.5\nsquared_error = 119.7\nsamples = 27\nvalue = 52.5"] ;
18 -> 19 ;
20 [label="bit_model_id_bit_model_2 <= 0.5\nsquared_error = 74.2\nsamples = 10\nvalue = 46.1"] ;
19 -> 20 ;
21 [label="min_depth <= 19815.0\nsquared_error = 63.4\nsamples = 7\nvalue = 49.4"] ;
20 -> 21 ;
22 [label="surface_rpm <= 80.8\nsquared_error = 36.4\nsamples = 4\nvalue = 45.3"] ;
21 -> 22 ;
23 [label="surface_rpm <= 76.0\nsquared_error = 1.1\nsamples = 2\nvalue = 40.0"] ;
22 -> 23 ;
24 [label="squared_error = 0.0\nsamples = 1\nvalue = 38.9"] ;
23 -> 24 ;
25 [label="squared_error = -0.0\nsamples = 1\nvalue = 41.0"] ;
23 -> 25 ;
26 [label="surface_rpm <= 83.8\nsquared_error = 14.0\nsamples = 2\nvalue = 50.7"] ;
22 -> 26 ;
27 [label="squared_error = 0.0\nsamples = 1\nvalue = 47.0"] ;
26 -> 27 ;
28 [label="squared_error = -0.0\nsamples = 1\nvalue = 54.4"] ;
26 -> 28 ;
29 [label="min_depth <= 19875.0\nsquared_error = 18.3\nsamples = 3\nvalue = 57.5"] ;
21 -> 29 ;
30 [label="min_depth <= 19845.0\nsquared_error = 4.1\nsamples = 2\nvalue = 59.8"] ;
29 -> 30 ;
31 [label="squared_error = 0.0\nsamples = 1\nvalue = 56.9"] ;
30 -> 31 ;
32 [label="squared_error = 0.0\nsamples = 1\nvalue = 61.2"] ;
30 -> 32 ;
33 [label="squared_error = -0.0\nsamples = 1\nvalue = 50.8"] ;
29 -> 33 ;
34 [label="surface_weight_on_bit <= 23.3\nsquared_error = 30.7\nsamples = 3\nvalue = 39.5"] ;
20 -> 34 ;
35 [label="squared_error = 0.0\nsamples = 1\nvalue = 32.4"] ;
34 -> 35 ;
36 [label="max_depth <= 20324.5\nsquared_error = 8.5\nsamples = 2\nvalue = 43.1"] ;
34 -> 36 ;
37 [label="squared_error = 0.0\nsamples = 1\nvalue = 40.1"] ;
36 -> 37 ;
38 [label="squared_error = -0.0\nsamples = 1\nvalue = 46.0"] ;
36 -> 38 ;
39 [label="formation_id_formation_138 <= 0.5\nsquared_error = 102.5\nsamples = 17\nvalue = 57.0"] ;
19 -> 39 ;
40 [label="drillbit_size <= 13.4\nsquared_error = 76.9\nsamples = 16\nvalue = 55.9"] ;
39 -> 40 ;
41 [label="formation_id_formation_109 <= 0.5\nsquared_error = 62.2\nsamples = 13\nvalue = 57.7"] ;
40 -> 41 ;
42 [label="min_depth <= 21945.0\nsquared_error = 48.4\nsamples = 12\nvalue = 58.6"] ;
41 -> 42 ;
43 [label="surface_weight_on_bit <= 25.9\nsquared_error = 30.5\nsamples = 3\nvalue = 64.6"] ;
42 -> 43 ;
44 [label="squared_error = 0.0\nsamples = 1\nvalue = 60.1"] ;
43 -> 44 ;
45 [label="surface_weight_on_bit <= 30.1\nsquared_error = 8.4\nsamples = 2\nvalue = 70.6"] ;
43 -> 45 ;
46 [label="squared_error = 0.0\nsamples = 1\nvalue = 68.6"] ;
45 -> 46 ;
47 [label="squared_error = 0.0\nsamples = 1\nvalue = 74.7"] ;
45 -> 47 ;
48 [label="min_depth <= 21990.0\nsquared_error = 28.2\nsamples = 9\nvalue = 55.4"] ;
42 -> 48 ;
49 [label="squared_error = 0.0\nsamples = 1\nvalue = 45.6"] ;
48 -> 49 ;
50 [label="min_depth <= 23850.0\nsquared_error = 12.7\nsamples = 8\nvalue = 57.2"] ;
48 -> 50 ;
51 [label="bit_model_id_bit_model_4 <= 0.5\nsquared_error = 21.9\nsamples = 2\nvalue = 53.6"] ;
50 -> 51 ;
52 [label="squared_error = 0.0\nsamples = 1\nvalue = 47.0"] ;
51 -> 52 ;
53 [label="squared_error = 0.0\nsamples = 1\nvalue = 56.9"] ;
51 -> 53 ;
54 [label="min_depth <= 24855.0\nsquared_error = 2.9\nsamples = 6\nvalue = 58.5"] ;
50 -> 54 ;
55 [label="min_depth <= 23895.0\nsquared_error = 1.4\nsamples = 5\nvalue = 59.0"] ;
54 -> 55 ;
56 [label="squared_error = 0.0\nsamples = 1\nvalue = 61.2"] ;
55 -> 56 ;
57 [label="surface_weight_on_bit <= 16.1\nsquared_error = 0.7\nsamples = 4\nvalue = 58.6"] ;
55 -> 57 ;
58 [label="max_depth <= 24704.5\nsquared_error = 0.2\nsamples = 3\nvalue = 58.9"] ;
57 -> 58 ;
59 [label="surface_rpm <= 104.3\nsquared_error = 0.0\nsamples = 2\nvalue = 58.7"] ;
58 -> 59 ;
60 [label="squared_error = 0.0\nsamples = 1\nvalue = 58.7"] ;
59 -> 60 ;
61 [label="squared_error = -0.0\nsamples = 1\nvalue = 58.7"] ;
59 -> 61 ;
62 [label="squared_error = 0.0\nsamples = 1\nvalue = 59.8"] ;
58 -> 62 ;
63 [label="squared_error = -0.0\nsamples = 1\nvalue = 56.9"] ;
57 -> 63 ;
64 [label="squared_error = 0.0\nsamples = 1\nvalue = 55.1"] ;
54 -> 64 ;
65 [label="squared_error = 0.0\nsamples = 1\nvalue = 39.8"] ;
41 -> 65 ;
66 [label="surface_rpm <= 108.0\nsquared_error = 3.4\nsamples = 3\nvalue = 43.5"] ;
40 -> 66 ;
67 [label="formation_id_formation_142 <= 0.5\nsquared_error = 1.1\nsamples = 2\nvalue = 42.4"] ;
66 -> 67 ;
68 [label="squared_error = 0.0\nsamples = 1\nvalue = 43.4"] ;
67 -> 68 ;
69 [label="squared_error = 0.0\nsamples = 1\nvalue = 41.3"] ;
67 -> 69 ;
70 [label="squared_error = -0.0\nsamples = 1\nvalue = 45.8"] ;
66 -> 70 ;
71 [label="squared_error = 0.0\nsamples = 1\nvalue = 83.2"] ;
39 -> 71 ;
72 [label="surface_rpm <= 98.5\nsquared_error = 111.5\nsamples = 101\nvalue = 39.2"] ;
18 -> 72 ;
73 [label="surface_rpm <= 97.1\nsquared_error = 93.3\nsamples = 36\nvalue = 32.8"] ;
72 -> 73 ;
74 [label="surface_rpm <= 76.2\nsquared_error = 74.4\nsamples = 35\nvalue = 34.7"] ;
73 -> 74 ;
75 [label="squared_error = 0.0\nsamples = 1\nvalue = 15.7"] ;
74 -> 75 ;
76 [label="max_depth <= 25739.5\nsquared_error = 55.5\nsamples = 34\nvalue = 35.9"] ;
74 -> 76 ;
77 [label="surface_weight_on_bit <= 20.8\nsquared_error = 27.2\nsamples = 5\nvalue = 26.3"] ;
76 -> 77 ;
78 [label="squared_error = 0.0\nsamples = 1\nvalue = 19.2"] ;
77 -> 78 ;
79 [label="min_depth <= 25335.8\nsquared_error = 18.3\nsamples = 4\nvalue = 28.1"] ;
77 -> 79 ;
80 [label="squared_error = 0.0\nsamples = 1\nvalue = 23.0"] ;
79 -> 80 ;
81 [label="surface_weight_on_bit <= 21.2\nsquared_error = 12.9\nsamples = 3\nvalue = 29.8"] ;
79 -> 81 ;
82 [label="area_id_area_1 <= 0.5\nsquared_error = 1.2\nsamples = 2\nvalue = 27.3"] ;
81 -> 82 ;
83 [label="squared_error = 0.0\nsamples = 1\nvalue = 28.4"] ;
82 -> 83 ;
84 [label="squared_error = 0.0\nsamples = 1\nvalue = 26.2"] ;
82 -> 84 ;
85 [label="squared_error = 0.0\nsamples = 1\nvalue = 34.7"] ;
81 -> 85 ;
86 [label="surface_weight_on_bit <= 17.5\nsquared_error = 47.1\nsamples = 29\nvalue = 36.9"] ;
76 -> 86 ;
87 [label="min_depth <= 29070.2\nsquared_error = 30.5\nsamples = 24\nvalue = 35.0"] ;
86 -> 87 ;
88 [label="formation_id_formation_74 <= 0.5\nsquared_error = 21.8\nsamples = 23\nvalue = 34.5"] ;
87 -> 88 ;
89 [label="surface_weight_on_bit <= 10.0\nsquared_error = 18.5\nsamples = 22\nvalue = 34.2"] ;
88 -> 89 ;
90 [label="surface_rpm <= 80.2\nsquared_error = 12.3\nsamples = 11\nvalue = 36.6"] ;
89 -> 90 ;
91 [label="squared_error = 0.0\nsamples = 1\nvalue = 28.5"] ;
90 -> 91 ;
92 [label="formation_id_formation_103 <= 0.5\nsquared_error = 8.2\nsamples = 10\nvalue = 37.2"] ;
90 -> 92 ;
93 [label="formation_id_formation_82 <= 0.5\nsquared_error = 4.6\nsamples = 9\nvalue = 37.7"] ;
92 -> 93 ;
94 [label="max_depth <= 28320.8\nsquared_error = 3.3\nsamples = 7\nvalue = 38.2"] ;
93 -> 94 ;
95 [label="min_depth <= 28245.0\nsquared_error = 0.7\nsamples = 4\nvalue = 38.9"] ;
94 -> 95 ;
96 [label="max_depth <= 27449.0\nsquared_error = 0.3\nsamples = 3\nvalue = 38.6"] ;
95 -> 96 ;
97 [label="squared_error = 0.0\nsamples = 1\nvalue = 38.2"] ;
96 -> 97 ;
98 [label="formation_id_formation_81 <= 0.5\nsquared_error = 0.1\nsamples = 2\nvalue = 39.1"] ;
96 -> 98 ;
99 [label="squared_error = 0.0\nsamples = 1\nvalue = 38.8"] ;
98 -> 99 ;
100 [label="squared_error = 0.0\nsamples = 1\nvalue = 39.7"] ;
98 -> 100 ;
101 [label="squared_error = -0.0\nsamples = 1\nvalue = 40.6"] ;
95 -> 101 ;
102 [label="surface_weight_on_bit <= 8.1\nsquared_error = 5.1\nsamples = 3\nvalue = 36.9"] ;
94 -> 102 ;
103 [label="squared_error = 0.0\nsamples = 1\nvalue = 40.5"] ;
102 -> 103 ;
104 [label="max_depth <= 28634.5\nsquared_error = 1.0\nsamples = 2\nvalue = 35.7"] ;
102 -> 104 ;
105 [label="squared_error = 0.0\nsamples = 1\nvalue = 35.0"] ;
104 -> 105 ;
106 [label="squared_error = -0.0\nsamples = 1\nvalue = 37.1"] ;
104 -> 106 ;
107 [label="max_depth <= 27344.5\nsquared_error = 5.1\nsamples = 2\nvalue = 35.3"] ;
93 -> 107 ;
108 [label="squared_error = 0.0\nsamples = 1\nvalue = 37.6"] ;
107 -> 108 ;
109 [label="squared_error = 0.0\nsamples = 1\nvalue = 33.1"] ;
107 -> 109 ;
110 [label="squared_error = -0.0\nsamples = 1\nvalue = 30.1"] ;
92 -> 110 ;
111 [label="formation_id_formation_202 <= 0.5\nsquared_error = 14.8\nsamples = 11\nvalue = 32.2"] ;
89 -> 111 ;
112 [label="min_depth <= 28125.0\nsquared_error = 11.2\nsamples = 10\nvalue = 31.7"] ;
111 -> 112 ;
113 [label="formation_id_formation_76 <= 0.5\nsquared_error = 10.3\nsamples = 9\nvalue = 31.4"] ;
112 -> 113 ;
114 [label="formation_id_formation_101 <= 0.5\nsquared_error = 4.2\nsamples = 7\nvalue = 30.8"] ;
113 -> 114 ;
115 [label="surface_weight_on_bit <= 12.8\nsquared_error = 1.4\nsamples = 6\nvalue = 29.9"] ;
114 -> 115 ;
116 [label="drillbit_size <= 9.6\nsquared_error = 0.6\nsamples = 3\nvalue = 29.1"] ;
115 -> 116 ;
117 [label="surface_weight_on_bit <= 10.8\nsquared_error = 0.1\nsamples = 2\nvalue = 29.4"] ;
116 -> 117 ;
118 [label="squared_error = 0.0\nsamples = 1\nvalue = 29.1"] ;
117 -> 118 ;
119 [label="squared_error = 0.0\nsamples = 1\nvalue = 29.8"] ;
117 -> 119 ;
120 [label="squared_error = 0.0\nsamples = 1\nvalue = 27.6"] ;
116 -> 120 ;
121 [label="formation_id_formation_105 <= 0.5\nsquared_error = 0.8\nsamples = 3\nvalue = 30.9"] ;
115 -> 121 ;
122 [label="squared_error = 0.0\nsamples = 1\nvalue = 31.9"] ;
121 -> 122 ;
123 [label="surface_rpm <= 80.6\nsquared_error = 0.6\nsamples = 2\nvalue = 30.6"] ;
121 -> 123 ;
124 [label="squared_error = 0.0\nsamples = 1\nvalue = 31.4"] ;
123 -> 124 ;
125 [label="squared_error = -0.0\nsamples = 1\nvalue = 29.8"] ;
123 -> 125 ;
126 [label="squared_error = -0.0\nsamples = 1\nvalue = 34.2"] ;
114 -> 126 ;
127 [label="min_depth <= 26745.0\nsquared_error = 28.3\nsamples = 2\nvalue = 34.4"] ;
113 -> 127 ;
128 [label="squared_error = 0.0\nsamples = 1\nvalue = 30.6"] ;
127 -> 128 ;
129 [label="squared_error = 0.0\nsamples = 1\nvalue = 41.9"] ;
127 -> 129 ;
130 [label="squared_error = -0.0\nsamples = 1\nvalue = 36.7"] ;
112 -> 130 ;
131 [label="squared_error = -0.0\nsamples = 1\nvalue = 40.9"] ;
111 -> 131 ;
132 [label="squared_error = 0.0\nsamples = 1\nvalue = 46.0"] ;
88 -> 132 ;
133 [label="squared_error = -0.0\nsamples = 1\nvalue = 53.0"] ;
87 -> 133 ;
134 [label="min_depth <= 27555.0\nsquared_error = 29.0\nsamples = 5\nvalue = 45.7"] ;
86 -> 134 ;
135 [label="drillbit_size <= 10.4\nsquared_error = 13.9\nsamples = 3\nvalue = 51.9"] ;
134 -> 135 ;
136 [label="surface_weight_on_bit <= 19.2\nsquared_error = 1.9\nsamples = 2\nvalue = 49.4"] ;
135 -> 136 ;
137 [label="squared_error = 0.0\nsamples = 1\nvalue = 48.0"] ;
136 -> 137 ;
138 [label="squared_error = -0.0\nsamples = 1\nvalue = 50.8"] ;
136 -> 138 ;
139 [label="squared_error = 0.0\nsamples = 1\nvalue = 57.0"] ;
135 -> 139 ;
140 [label="drillbit_size <= 10.4\nsquared_error = 0.1\nsamples = 2\nvalue = 41.9"] ;
134 -> 140 ;
141 [label="squared_error = 0.0\nsamples = 1\nvalue = 42.4"] ;
140 -> 141 ;
142 [label="squared_error = -0.0\nsamples = 1\nvalue = 41.8"] ;
140 -> 142 ;
143 [label="squared_error = 0.0\nsamples = 1\nvalue = 18.4"] ;
73 -> 143 ;
144 [label="formation_id_formation_106 <= 0.5\nsquared_error = 82.2\nsamples = 65\nvalue = 43.1"] ;
72 -> 144 ;
145 [label="max_depth <= 30074.8\nsquared_error = 66.2\nsamples = 62\nvalue = 43.9"] ;
144 -> 145 ;
146 [label="bit_model_id_bit_model_6 <= 0.5\nsquared_error = 65.2\nsamples = 46\nvalue = 41.9"] ;
145 -> 146 ;
147 [label="drillbit_size <= 11.4\nsquared_error = 51.0\nsamples = 35\nvalue = 39.6"] ;
146 -> 147 ;
148 [label="max_depth <= 29594.0\nsquared_error = 45.9\nsamples = 15\nvalue = 36.3"] ;
147 -> 148 ;
149 [label="formation_id_formation_89 <= 0.5\nsquared_error = 36.6\nsamples = 13\nvalue = 37.2"] ;
148 -> 149 ;
150 [label="surface_rpm <= 102.4\nsquared_error = 30.9\nsamples = 11\nvalue = 38.9"] ;
149 -> 150 ;
151 [label="squared_error = 0.0\nsamples = 1\nvalue = 23.0"] ;
150 -> 151 ;
152 [label="formation_id_formation_103 <= 0.5\nsquared_error = 18.5\nsamples = 10\nvalue = 39.8"] ;
150 -> 152 ;
153 [label="formation_id_formation_13 <= 0.5\nsquared_error = 13.4\nsamples = 9\nvalue = 39.2"] ;
152 -> 153 ;
154 [label="surface_rpm <= 107.0\nsquared_error = 7.8\nsamples = 8\nvalue = 38.3"] ;
153 -> 154 ;
155 [label="area_id_area_1 <= 0.5\nsquared_error = 0.0\nsamples = 2\nvalue = 40.7"] ;
154 -> 155 ;
156 [label="squared_error = 0.0\nsamples = 1\nvalue = 40.7"] ;
155 -> 156 ;
157 [label="squared_error = -0.0\nsamples = 1\nvalue = 41.0"] ;
155 -> 157 ;
158 [label="formation_id_formation_97 <= 0.5\nsquared_error = 7.3\nsamples = 6\nvalue = 37.2"] ;
154 -> 158 ;
159 [label="bit_model_id_bit_model_15 <= 0.5\nsquared_error = 3.4\nsamples = 4\nvalue = 36.1"] ;
158 -> 159 ;
160 [label="surface_weight_on_bit <= 11.5\nsquared_error = 1.6\nsamples = 3\nvalue = 34.9"] ;
159 -> 160 ;
161 [label="squared_error = 0.0\nsamples = 1\nvalue = 32.4"] ;
160 -> 161 ;
162 [label="bit_model_id_bit_model_37 <= 0.5\nsquared_error = 0.0\nsamples = 2\nvalue = 35.5"] ;
160 -> 162 ;
163 [label="squared_error = -0.0\nsamples = 1\nvalue = 35.5"] ;
162 -> 163 ;
164 [label="squared_error = -0.0\nsamples = 1\nvalue = 35.6"] ;
162 -> 164 ;
165 [label="squared_error = 0.0\nsamples = 1\nvalue = 38.1"] ;
159 -> 165 ;
166 [label="min_depth <= 29385.0\nsquared_error = 6.1\nsamples = 2\nvalue = 40.1"] ;
158 -> 166 ;
167 [label="squared_error = 0.0\nsamples = 1\nvalue = 38.3"] ;
166 -> 167 ;
168 [label="squared_error = -0.0\nsamples = 1\nvalue = 43.6"] ;
166 -> 168 ;
169 [label="squared_error = 0.0\nsamples = 1\nvalue = 46.4"] ;
153 -> 169 ;
170 [label="squared_error = -0.0\nsamples = 1\nvalue = 49.9"] ;
152 -> 170 ;
171 [label="surface_rpm <= 105.6\nsquared_error = 0.2\nsamples = 2\nvalue = 30.3"] ;
149 -> 171 ;
172 [label="squared_error = 0.0\nsamples = 1\nvalue = 30.9"] ;
171 -> 172 ;
173 [label="squared_error = -0.0\nsamples = 1\nvalue = 29.9"] ;
171 -> 173 ;
174 [label="max_depth <= 29653.8\nsquared_error = 19.0\nsamples = 2\nvalue = 24.8"] ;
148 -> 174 ;
175 [label="squared_error = 0.0\nsamples = 1\nvalue = 29.2"] ;
174 -> 175 ;
176 [label="squared_error = 0.0\nsamples = 1\nvalue = 20.5"] ;
174 -> 176 ;
177 [label="surface_weight_on_bit <= 13.8\nsquared_error = 31.6\nsamples = 20\nvalue = 43.2"] ;
147 -> 177 ;
178 [label="min_depth <= 29175.0\nsquared_error = 4.4\nsamples = 3\nvalue = 52.7"] ;
177 -> 178 ;
179 [label="squared_error = 0.0\nsamples = 1\nvalue = 49.8"] ;
178 -> 179 ;
180 [label="surface_weight_on_bit <= 9.6\nsquared_error = 0.5\nsamples = 2\nvalue = 54.1"] ;
178 -> 180 ;
181 [label="squared_error = 0.0\nsamples = 1\nvalue = 53.4"] ;
180 -> 181 ;
182 [label="squared_error = -0.0\nsamples = 1\nvalue = 54.8"] ;
180 -> 182 ;
183 [label="surface_rpm <= 101.1\nsquared_error = 21.5\nsamples = 17\nvalue = 41.9"] ;
177 -> 183 ;
184 [label="surface_weight_on_bit <= 19.8\nsquared_error = 16.9\nsamples = 15\nvalue = 41.0"] ;
183 -> 184 ;
185 [label="formation_id_formation_161 <= 0.5\nsquared_error = 7.1\nsamples = 3\nvalue = 45.1"] ;
184 -> 185 ;
186 [label="formation_id_formation_165 <= 0.5\nsquared_error = 0.1\nsamples = 2\nvalue = 46.6"] ;
185 -> 186 ;
187 [label="squared_error = 0.0\nsamples = 1\nvalue = 47.0"] ;
186 -> 187 ;
188 [label="squared_error = 0.0\nsamples = 1\nvalue = 46.4"] ;
186 -> 188 ;
189 [label="squared_error = -0.0\nsamples = 1\nvalue = 40.5"] ;
185 -> 189 ;
190 [label="surface_weight_on_bit <= 32.2\nsquared_error = 14.0\nsamples = 12\nvalue = 39.9"] ;
184 -> 190 ;
191 [label="surface_rpm <= 100.9\nsquared_error = 2.0\nsamples = 6\nvalue = 37.9"] ;
190 -> 191 ;
192 [label="formation_id_formation_161 <= 0.5\nsquared_error = 0.8\nsamples = 2\nvalue = 35.9"] ;
191 -> 192 ;
193 [label="squared_error = 0.0\nsamples = 1\nvalue = 36.8"] ;
192 -> 193 ;
194 [label="squared_error = -0.0\nsamples = 1\nvalue = 35.0"] ;
192 -> 194 ;
195 [label="surface_rpm <= 101.0\nsquared_error = 0.4\nsamples = 4\nvalue = 38.7"] ;
191 -> 195 ;
196 [label="surface_weight_on_bit <= 30.2\nsquared_error = 0.0\nsamples = 2\nvalue = 39.3"] ;
195 -> 196 ;
197 [label="squared_error = 0.0\nsamples = 1\nvalue = 39.2"] ;
196 -> 197 ;
198 [label="squared_error = 0.0\nsamples = 1\nvalue = 39.4"] ;
196 -> 198 ;
199 [label="formation_id_formation_167 <= 0.5\nsquared_error = 0.1\nsamples = 2\nvalue = 38.2"] ;
195 -> 199 ;
200 [label="squared_error = 0.0\nsamples = 1\nvalue = 38.0"] ;
199 -> 200 ;
201 [label="squared_error = 0.0\nsamples = 1\nvalue = 38.6"] ;
199 -> 201 ;
202 [label="surface_weight_on_bit <= 39.0\nsquared_error = 17.6\nsamples = 6\nvalue = 41.7"] ;
190 -> 202 ;
203 [label="min_depth <= 29550.0\nsquared_error = 2.6\nsamples = 2\nvalue = 46.1"] ;
202 -> 203 ;
204 [label="squared_error = 0.0\nsamples = 1\nvalue = 45.0"] ;
203 -> 204 ;
205 [label="squared_error = 0.0\nsamples = 1\nvalue = 48.4"] ;
203 -> 205 ;
206 [label="surface_weight_on_bit <= 41.0\nsquared_error = 7.7\nsamples = 4\nvalue = 39.0"] ;
202 -> 206 ;
207 [label="surface_weight_on_bit <= 39.7\nsquared_error = 0.2\nsamples = 2\nvalue = 41.2"] ;
206 -> 207 ;
208 [label="squared_error = 0.0\nsamples = 1\nvalue = 41.7"] ;
207 -> 208 ;
209 [label="squared_error = -0.0\nsamples = 1\nvalue = 40.9"] ;
207 -> 209 ;
210 [label="min_depth <= 29565.0\nsquared_error = 1.9\nsamples = 2\nvalue = 35.8"] ;
206 -> 210 ;
211 [label="squared_error = 0.0\nsamples = 1\nvalue = 34.5"] ;
210 -> 211 ;
212 [label="squared_error = 0.0\nsamples = 1\nvalue = 37.2"] ;
210 -> 212 ;
213 [label="surface_weight_on_bit <= 31.9\nsquared_error = 9.8\nsamples = 2\nvalue = 47.8"] ;
183 -> 213 ;
214 [label="squared_error = 0.0\nsamples = 1\nvalue = 43.4"] ;
213 -> 214 ;
215 [label="squared_error = 0.0\nsamples = 1\nvalue = 50.0"] ;
213 -> 215 ;
216 [label="surface_weight_on_bit <= 10.4\nsquared_error = 49.5\nsamples = 11\nvalue = 48.3"] ;
146 -> 216 ;
217 [label="surface_weight_on_bit <= 9.7\nsquared_error = 15.0\nsamples = 5\nvalue = 43.8"] ;
216 -> 217 ;
218 [label="max_depth <= 26939.5\nsquared_error = 2.1\nsamples = 2\nvalue = 46.0"] ;
217 -> 218 ;
219 [label="squared_error = -0.0\nsamples = 1\nvalue = 44.9"] ;
218 -> 219 ;
220 [label="squared_error = -0.0\nsamples = 1\nvalue = 47.8"] ;
218 -> 220 ;
221 [label="surface_rpm <= 106.2\nsquared_error = 17.2\nsamples = 3\nvalue = 41.0"] ;
217 -> 221 ;
222 [label="min_depth <= 27285.0\nsquared_error = 0.0\nsamples = 2\nvalue = 36.9"] ;
221 -> 222 ;
223 [label="squared_error = 0.0\nsamples = 1\nvalue = 37.0"] ;
222 -> 223 ;
224 [label="squared_error = -0.0\nsamples = 1\nvalue = 36.8"] ;
222 -> 224 ;
225 [label="squared_error = -0.0\nsamples = 1\nvalue = 45.2"] ;
221 -> 225 ;
226 [label="formation_id_formation_93 <= 0.5\nsquared_error = 43.1\nsamples = 6\nvalue = 52.9"] ;
216 -> 226 ;
227 [label="formation_id_formation_74 <= 0.5\nsquared_error = 5.9\nsamples = 5\nvalue = 56.2"] ;
226 -> 227 ;
228 [label="formation_id_formation_67 <= 0.5\nsquared_error = 2.9\nsamples = 4\nvalue = 56.9"] ;
227 -> 228 ;
229 [label="max_depth <= 25664.5\nsquared_error = 0.7\nsamples = 3\nvalue = 57.6"] ;
228 -> 229 ;
230 [label="squared_error = 0.0\nsamples = 1\nvalue = 55.9"] ;
229 -> 230 ;
231 [label="surface_weight_on_bit <= 15.1\nsquared_error = 0.1\nsamples = 2\nvalue = 58.0"] ;
229 -> 231 ;
232 [label="squared_error = 0.0\nsamples = 1\nvalue = 58.3"] ;
231 -> 232 ;
233 [label="squared_error = 0.0\nsamples = 1\nvalue = 57.8"] ;
231 -> 233 ;
234 [label="squared_error = 0.0\nsamples = 1\nvalue = 53.5"] ;
228 -> 234 ;
235 [label="squared_error = 0.0\nsamples = 1\nvalue = 51.7"] ;
227 -> 235 ;
236 [label="squared_error = -0.0\nsamples = 1\nvalue = 41.3"] ;
226 -> 236 ;
237 [label="max_depth <= 30689.8\nsquared_error = 26.1\nsamples = 16\nvalue = 49.5"] ;
145 -> 237 ;
238 [label="surface_rpm <= 101.0\nsquared_error = 13.2\nsamples = 8\nvalue = 52.5"] ;
237 -> 238 ;
239 [label="squared_error = 0.0\nsamples = 1\nvalue = 58.3"] ;
238 -> 239 ;
240 [label="surface_rpm <= 101.0\nsquared_error = 8.8\nsamples = 7\nvalue = 51.5"] ;
238 -> 240 ;
241 [label="surface_weight_on_bit <= 35.4\nsquared_error = 2.1\nsamples = 3\nvalue = 49.8"] ;
240 -> 241 ;
242 [label="surface_rpm <= 101.0\nsquared_error = 1.2\nsamples = 2\nvalue = 50.6"] ;
241 -> 242 ;
243 [label="squared_error = 0.0\nsamples = 1\nvalue = 49.6"] ;
242 -> 243 ;
244 [label="squared_error = 0.0\nsamples = 1\nvalue = 51.9"] ;
242 -> 244 ;
245 [label="squared_error = 0.0\nsamples = 1\nvalue = 48.1"] ;
241 -> 245 ;
246 [label="min_depth <= 30120.0\nsquared_error = 9.2\nsamples = 4\nvalue = 53.8"] ;
240 -> 246 ;
247 [label="squared_error = 0.0\nsamples = 1\nvalue = 51.3"] ;
246 -> 247 ;
248 [label="min_depth <= 30315.0\nsquared_error = 8.4\nsamples = 3\nvalue = 55.4"] ;
246 -> 248 ;
249 [label="squared_error = 0.0\nsamples = 1\nvalue = 59.5"] ;
248 -> 249 ;
250 [label="formation_id_formation_174 <= 0.5\nsquared_error = 0.4\nsamples = 2\nvalue = 53.4"] ;
248 -> 250 ;
251 [label="squared_error = 0.0\nsamples = 1\nvalue = 54.0"] ;
250 -> 251 ;
252 [label="squared_error = -0.0\nsamples = 1\nvalue = 52.8"] ;
250 -> 252 ;
253 [label="max_depth <= 31034.8\nsquared_error = 17.1\nsamples = 8\nvalue = 45.7"] ;
237 -> 253 ;
254 [label="max_depth <= 30929.8\nsquared_error = 14.6\nsamples = 7\nvalue = 46.8"] ;
253 -> 254 ;
255 [label="surface_weight_on_bit <= 19.3\nsquared_error = 5.5\nsamples = 4\nvalue = 44.4"] ;
254 -> 255 ;
256 [label="max_depth <= 30749.8\nsquared_error = 2.4\nsamples = 3\nvalue = 43.3"] ;
255 -> 256 ;
257 [label="squared_error = 0.0\nsamples = 1\nvalue = 45.2"] ;
256 -> 257 ;
258 [label="surface_weight_on_bit <= 13.0\nsquared_error = 0.8\nsamples = 2\nvalue = 42.4"] ;
256 -> 258 ;
259 [label="squared_error = 0.0\nsamples = 1\nvalue = 43.3"] ;
258 -> 259 ;
260 [label="squared_error = 0.0\nsamples = 1\nvalue = 41.5"] ;
258 -> 260 ;
261 [label="squared_error = -0.0\nsamples = 1\nvalue = 47.8"] ;
255 -> 261 ;
262 [label="min_depth <= 30975.0\nsquared_error = 14.0\nsamples = 3\nvalue = 48.6"] ;
254 -> 262 ;
263 [label="min_depth <= 30945.0\nsquared_error = 1.6\nsamples = 2\nvalue = 53.1"] ;
262 -> 263 ;
264 [label="squared_error = 0.0\nsamples = 1\nvalue = 54.4"] ;
263 -> 264 ;
265 [label="squared_error = -0.0\nsamples = 1\nvalue = 51.9"] ;
263 -> 265 ;
266 [label="squared_error = 0.0\nsamples = 1\nvalue = 45.7"] ;
262 -> 266 ;
267 [label="squared_error = 0.0\nsamples = 1\nvalue = 40.9"] ;
253 -> 267 ;
268 [label="surface_weight_on_bit <= 6.6\nsquared_error = 2.2\nsamples = 3\nvalue = 19.2"] ;
144 -> 268 ;
269 [label="squared_error = 0.0\nsamples = 1\nvalue = 17.1"] ;
268 -> 269 ;
270 [label="surface_weight_on_bit <= 7.3\nsquared_error = 0.0\nsamples = 2\nvalue = 20.3"] ;
268 -> 270 ;
271 [label="squared_error = 0.0\nsamples = 1\nvalue = 20.1"] ;
270 -> 271 ;
272 [label="squared_error = 0.0\nsamples = 1\nvalue = 20.4"] ;
270 -> 272 ;
273 [label="surface_rpm <= 139.9\nsquared_error = 204.9\nsamples = 444\nvalue = 55.5"] ;
17 -> 273 ;
274 [label="bit_model_id_bit_model_37 <= 0.5\nsquared_error = 161.7\nsamples = 300\nvalue = 52.7"] ;
273 -> 274 ;
275 [label="bit_model_id_bit_model_1 <= 0.5\nsquared_error = 141.3\nsamples = 278\nvalue = 54.1"] ;
274 -> 275 ;
276 [label="max_depth <= 19334.5\nsquared_error = 131.9\nsamples = 276\nvalue = 53.8"] ;
275 -> 276 ;
277 [label="surface_weight_on_bit <= 28.4\nsquared_error = 32.5\nsamples = 5\nvalue = 74.4"] ;
276 -> 277 ;
278 [label="max_depth <= 19229.5\nsquared_error = 12.2\nsamples = 4\nvalue = 72.7"] ;
277 -> 278 ;
279 [label="min_depth <= 19155.0\nsquared_error = 0.8\nsamples = 2\nvalue = 75.6"] ;
278 -> 279 ;
280 [label="squared_error = 0.0\nsamples = 1\nvalue = 74.7"] ;
279 -> 280 ;
281 [label="squared_error = -0.0\nsamples = 1\nvalue = 76.6"] ;
279 -> 281 ;
282 [label="surface_weight_on_bit <= 16.7\nsquared_error = 0.0\nsamples = 2\nvalue = 68.7"] ;
278 -> 282 ;
283 [label="squared_error = 0.0\nsamples = 1\nvalue = 68.7"] ;
282 -> 283 ;
284 [label="squared_error = 0.0\nsamples = 1\nvalue = 68.7"] ;
282 -> 284 ;
285 [label="squared_error = -0.0\nsamples = 1\nvalue = 86.8"] ;
277 -> 285 ;
286 [label="bit_model_id_bit_model_6 <= 0.5\nsquared_error = 125.3\nsamples = 271\nvalue = 53.4"] ;
276 -> 286 ;
287 [label="drillbit_size <= 11.4\nsquared_error = 126.0\nsamples = 207\nvalue = 52.0"] ;
286 -> 287 ;
288 [label="bit_model_id_bit_model_21 <= 0.5\nsquared_error = 37.2\nsamples = 23\nvalue = 41.5"] ;
287 -> 288 ;
289 [label="surface_rpm <= 138.9\nsquared_error = 16.9\nsamples = 14\nvalue = 38.1"] ;
288 -> 289 ;
290 [label="surface_weight_on_bit <= 51.1\nsquared_error = 7.5\nsamples = 12\nvalue = 37.0"] ;
289 -> 290 ;
291 [label="surface_rpm <= 120.6\nsquared_error = 6.4\nsamples = 11\nvalue = 37.5"] ;
290 -> 291 ;
292 [label="min_depth <= 27990.0\nsquared_error = 3.2\nsamples = 5\nvalue = 35.7"] ;
291 -> 292 ;
293 [label="bit_model_id_bit_model_27 <= 0.5\nsquared_error = 0.2\nsamples = 3\nvalue = 34.2"] ;
292 -> 293 ;
294 [label="surface_rpm <= 117.4\nsquared_error = 0.0\nsamples = 2\nvalue = 33.8"] ;
293 -> 294 ;
295 [label="squared_error = 0.0\nsamples = 1\nvalue = 33.7"] ;
294 -> 295 ;
296 [label="squared_error = -0.0\nsamples = 1\nvalue = 33.9"] ;
294 -> 296 ;
297 [label="squared_error = 0.0\nsamples = 1\nvalue = 34.7"] ;
293 -> 297 ;
298 [label="min_depth <= 29355.0\nsquared_error = 0.3\nsamples = 2\nvalue = 37.6"] ;
292 -> 298 ;
299 [label="squared_error = 0.0\nsamples = 1\nvalue = 37.1"] ;
298 -> 299 ;
300 [label="squared_error = 0.0\nsamples = 1\nvalue = 38.1"] ;
298 -> 300 ;
301 [label="bit_model_id_bit_model_22 <= 0.5\nsquared_error = 2.4\nsamples = 6\nvalue = 39.5"] ;
291 -> 301 ;
302 [label="min_depth <= 26685.0\nsquared_error = 0.9\nsamples = 3\nvalue = 38.5"] ;
301 -> 302 ;
303 [label="min_depth <= 26595.0\nsquared_error = 0.2\nsamples = 2\nvalue = 38.0"] ;
302 -> 303 ;
304 [label="squared_error = 0.0\nsamples = 1\nvalue = 38.4"] ;
303 -> 304 ;
305 [label="squared_error = 0.0\nsamples = 1\nvalue = 37.6"] ;
303 -> 305 ;
306 [label="squared_error = -0.0\nsamples = 1\nvalue = 40.2"] ;
302 -> 306 ;
307 [label="max_depth <= 26504.8\nsquared_error = 0.3\nsamples = 3\nvalue = 41.2"] ;
301 -> 307 ;
308 [label="squared_error = 0.0\nsamples = 1\nvalue = 42.0"] ;
307 -> 308 ;
309 [label="surface_weight_on_bit <= 49.4\nsquared_error = 0.0\nsamples = 2\nvalue = 40.8"] ;
307 -> 309 ;
310 [label="squared_error = 0.0\nsamples = 1\nvalue = 40.7"] ;
309 -> 310 ;
311 [label="squared_error = 0.0\nsamples = 1\nvalue = 40.8"] ;
309 -> 311 ;
312 [label="squared_error = -0.0\nsamples = 1\nvalue = 33.1"] ;
290 -> 312 ;
313 [label="formation_id_formation_234 <= 0.5\nsquared_error = 0.0\nsamples = 2\nvalue = 47.9"] ;
289 -> 313 ;
314 [label="squared_error = 0.0\nsamples = 1\nvalue = 47.8"] ;
313 -> 314 ;
315 [label="squared_error = 0.0\nsamples = 1\nvalue = 48.0"] ;
313 -> 315 ;
316 [label="min_depth <= 27930.0\nsquared_error = 9.2\nsamples = 9\nvalue = 48.1"] ;
288 -> 316 ;
317 [label="formation_id_formation_99 <= 0.5\nsquared_error = 1.1\nsamples = 6\nvalue = 49.9"] ;
316 -> 317 ;
318 [label="surface_weight_on_bit <= 14.4\nsquared_error = 0.3\nsamples = 4\nvalue = 50.4"] ;
317 -> 318 ;
319 [label="squared_error = 0.0\nsamples = 1\nvalue = 51.1"] ;
318 -> 319 ;
320 [label="formation_id_formation_96 <= 0.5\nsquared_error = 0.1\nsamples = 3\nvalue = 50.1"] ;
318 -> 320 ;
321 [label="squared_error = 0.0\nsamples = 1\nvalue = 49.5"] ;
320 -> 321 ;
322 [label="surface_weight_on_bit <= 17.4\nsquared_error = 0.0\nsamples = 2\nvalue = 50.2"] ;
320 -> 322 ;
323 [label="squared_error = 0.0\nsamples = 1\nvalue = 50.2"] ;
322 -> 323 ;
324 [label="squared_error = 0.0\nsamples = 1\nvalue = 50.3"] ;
322 -> 324 ;
325 [label="surface_rpm <= 120.1\nsquared_error = 0.5\nsamples = 2\nvalue = 48.4"] ;
317 -> 325 ;
326 [label="squared_error = 0.0\nsamples = 1\nvalue = 49.1"] ;
325 -> 326 ;
327 [label="squared_error = 0.0\nsamples = 1\nvalue = 47.8"] ;
325 -> 327 ;
328 [label="max_depth <= 28034.5\nsquared_error = 0.2\nsamples = 3\nvalue = 43.4"] ;
316 -> 328 ;
329 [label="max_depth <= 28004.2\nsquared_error = 0.1\nsamples = 2\nvalue = 43.2"] ;
328 -> 329 ;
330 [label="squared_error = 0.0\nsamples = 1\nvalue = 43.6"] ;
329 -> 330 ;
331 [label="squared_error = 0.0\nsamples = 1\nvalue = 42.8"] ;
329 -> 331 ;
332 [label="squared_error = 0.0\nsamples = 1\nvalue = 43.8"] ;
328 -> 332 ;
333 [label="formation_id_formation_185 <= 0.5\nsquared_error = 122.0\nsamples = 184\nvalue = 53.2"] ;
287 -> 333 ;
334 [label="formation_id_formation_33 <= 0.5\nsquared_error = 110.7\nsamples = 177\nvalue = 52.7"] ;
333 -> 334 ;
335 [label="formation_id_formation_20 <= 0.5\nsquared_error = 103.1\nsamples = 176\nvalue = 52.5"] ;
334 -> 335 ;
336 [label="formation_id_formation_21 <= 0.5\nsquared_error = 95.5\nsamples = 175\nvalue = 52.3"] ;
335 -> 336 ;
337 [label="bit_model_id_bit_model_39 <= 0.5\nsquared_error = 87.9\nsamples = 174\nvalue = 52.2"] ;
336 -> 337 ;
338 [label="formation_id_formation_18 <= 0.5\nsquared_error = 84.0\nsamples = 167\nvalue = 52.6"] ;
337 -> 338 ;
339 [label="surface_rpm <= 117.1\nsquared_error = 80.1\nsamples = 166\nvalue = 52.9"] ;
338 -> 339 ;
340 [label="bit_model_id_bit_model_34 <= 0.5\nsquared_error = 4.6\nsamples = 2\nvalue = 69.9"] ;
339 -> 340 ;
341 [label="squared_error = 0.0\nsamples = 1\nvalue = 73.6"] ;
340 -> 341 ;
342 [label="squared_error = -0.0\nsamples = 1\nvalue = 68.7"] ;
340 -> 342 ;
343 [label="formation_id_formation_153 <= 0.5\nsquared_error = 76.5\nsamples = 164\nvalue = 52.6"] ;
339 -> 343 ;
344 [label="surface_rpm <= 134.2\nsquared_error = 73.6\nsamples = 163\nvalue = 52.4"] ;
343 -> 344 ;
345 [label="formation_id_formation_138 <= 0.5\nsquared_error = 51.1\nsamples = 111\nvalue = 51.2"] ;
344 -> 345 ;
346 [label="formation_id_formation_116 <= 0.5\nsquared_error = 41.5\nsamples = 109\nvalue = 50.9"] ;
345 -> 346 ;
347 [label="drillbit_size <= 13.4\nsquared_error = 36.2\nsamples = 106\nvalue = 50.6"] ;
346 -> 347 ;
348 [label="min_depth <= 23685.0\nsquared_error = 25.8\nsamples = 80\nvalue = 51.9"] ;
347 -> 348 ;
349 [label="formation_id_formation_2 <= 0.5\nsquared_error = 24.6\nsamples = 47\nvalue = 50.2"] ;
348 -> 349 ;
350 [label="surface_weight_on_bit <= 21.3\nsquared_error = 20.9\nsamples = 46\nvalue = 49.8"] ;
349 -> 350 ;
351 [label="min_depth <= 20760.0\nsquared_error = 8.3\nsamples = 40\nvalue = 51.0"] ;
350 -> 351 ;
352 [label="formation_id_formation_108 <= 0.5\nsquared_error = 2.4\nsamples = 2\nvalue = 39.9"] ;
351 -> 352 ;
353 [label="squared_error = 0.0\nsamples = 1\nvalue = 41.4"] ;
352 -> 353 ;
354 [label="squared_error = 0.0\nsamples = 1\nvalue = 38.3"] ;
352 -> 354 ;
355 [label="surface_weight_on_bit <= 13.5\nsquared_error = 4.0\nsamples = 38\nvalue = 51.4"] ;
351 -> 355 ;
356 [label="formation_id_formation_110 <= 0.5\nsquared_error = 1.2\nsamples = 17\nvalue = 52.5"] ;
355 -> 356 ;
357 [label="surface_rpm <= 134.0\nsquared_error = 0.7\nsamples = 16\nvalue = 52.7"] ;
356 -> 357 ;
358 [label="surface_rpm <= 134.0\nsquared_error = 1.0\nsamples = 5\nvalue = 51.8"] ;
357 -> 358 ;
359 [label="surface_weight_on_bit <= 8.7\nsquared_error = 0.0\nsamples = 2\nvalue = 53.1"] ;
358 -> 359 ;
360 [label="squared_error = 0.0\nsamples = 1\nvalue = 53.0"] ;
359 -> 360 ;
361 [label="squared_error = -0.0\nsamples = 1\nvalue = 53.2"] ;
359 -> 361 ;
362 [label="formation_id_formation_112 <= 0.5\nsquared_error = 0.1\nsamples = 3\nvalue = 51.1"] ;
358 -> 362 ;
363 [label="surface_rpm <= 134.0\nsquared_error = 0.1\nsamples = 2\nvalue = 51.3"] ;
362 -> 363 ;
364 [label="squared_error = 0.0\nsamples = 1\nvalue = 51.7"] ;
363 -> 364 ;
365 [label="squared_error = 0.0\nsamples = 1\nvalue = 51.1"] ;
363 -> 365 ;
366 [label="squared_error = -0.0\nsamples = 1\nvalue = 50.7"] ;
362 -> 366 ;
367 [label="surface_weight_on_bit <= 8.4\nsquared_error = 0.0\nsamples = 11\nvalue = 53.1"] ;
357 -> 367 ;
368 [label="surface_weight_on_bit <= 7.6\nsquared_error = 0.0\nsamples = 2\nvalue = 53.3"] ;
367 -> 368 ;
369 [label="squared_error = 0.0\nsamples = 1\nvalue = 53.3"] ;
368 -> 369 ;
370 [label="squared_error = 0.0\nsamples = 1\nvalue = 53.2"] ;
368 -> 370 ;
371 [label="surface_weight_on_bit <= 8.9\nsquared_error = 0.0\nsamples = 9\nvalue = 53.0"] ;
367 -> 371 ;
372 [label="squared_error = 0.0\nsamples = 1\nvalue = 52.7"] ;
371 -> 372 ;
373 [label="surface_rpm <= 134.1\nsquared_error = 0.0\nsamples = 8\nvalue = 53.1"] ;
371 -> 373 ;
374 [label="formation_id_formation_51 <= 0.5\nsquared_error = 0.0\nsamples = 7\nvalue = 53.1"] ;
373 -> 374 ;
375 [label="surface_rpm <= 134.1\nsquared_error = 0.0\nsamples = 5\nvalue = 53.1"] ;
374 -> 375 ;
376 [label="surface_rpm <= 134.1\nsquared_error = 0.0\nsamples = 2\nvalue = 53.1"] ;
375 -> 376 ;
377 [label="squared_error = 0.0\nsamples = 1\nvalue = 53.1"] ;
376 -> 377 ;
378 [label="squared_error = -0.0\nsamples = 1\nvalue = 53.1"] ;
376 -> 378 ;
379 [label="min_depth <= 22125.0\nsquared_error = 0.0\nsamples = 3\nvalue = 53.0"] ;
375 -> 379 ;
380 [label="squared_error = 0.0\nsamples = 1\nvalue = 53.0"] ;
379 -> 380 ;
381 [label="surface_rpm <= 134.1\nsquared_error = 0.0\nsamples = 2\nvalue = 53.1"] ;
379 -> 381 ;
382 [label="squared_error = 0.0\nsamples = 1\nvalue = 53.0"] ;
381 -> 382 ;
383 [label="squared_error = 0.0\nsamples = 1\nvalue = 53.1"] ;
381 -> 383 ;
384 [label="surface_weight_on_bit <= 9.5\nsquared_error = 0.0\nsamples = 2\nvalue = 53.0"] ;
374 -> 384 ;
385 [label="squared_error = 0.0\nsamples = 1\nvalue = 53.0"] ;
384 -> 385 ;
386 [label="squared_error = 0.0\nsamples = 1\nvalue = 53.0"] ;
384 -> 386 ;
387 [label="squared_error = -0.0\nsamples = 1\nvalue = 53.3"] ;
373 -> 387 ;
388 [label="squared_error = -0.0\nsamples = 1\nvalue = 48.7"] ;
356 -> 388 ;
389 [label="min_depth <= 22515.0\nsquared_error = 4.4\nsamples = 21\nvalue = 50.3"] ;
355 -> 389 ;
390 [label="surface_rpm <= 133.5\nsquared_error = 3.0\nsamples = 13\nvalue = 51.1"] ;
389 -> 390 ;
391 [label="squared_error = 0.0\nsamples = 1\nvalue = 47.6"] ;
390 -> 391 ;
392 [label="surface_rpm <= 134.2\nsquared_error = 1.9\nsamples = 12\nvalue = 51.4"] ;
390 -> 392 ;
393 [label="max_depth <= 22379.5\nsquared_error = 1.6\nsamples = 10\nvalue = 51.1"] ;
392 -> 393 ;
394 [label="min_depth <= 21270.0\nsquared_error = 1.3\nsamples = 8\nvalue = 50.7"] ;
393 -> 394 ;
395 [label="formation_id_formation_110 <= 0.5\nsquared_error = 0.5\nsamples = 4\nvalue = 51.4"] ;
394 -> 395 ;
396 [label="min_depth <= 21000.0\nsquared_error = 0.0\nsamples = 2\nvalue = 50.8"] ;
395 -> 396 ;
397 [label="squared_error = 0.0\nsamples = 1\nvalue = 50.9"] ;
396 -> 397 ;
398 [label="squared_error = -0.0\nsamples = 1\nvalue = 50.7"] ;
396 -> 398 ;
399 [label="surface_rpm <= 134.1\nsquared_error = 0.2\nsamples = 2\nvalue = 52.1"] ;
395 -> 399 ;
400 [label="squared_error = 0.0\nsamples = 1\nvalue = 51.9"] ;
399 -> 400 ;
401 [label="squared_error = -0.0\nsamples = 1\nvalue = 52.7"] ;
399 -> 401 ;
402 [label="min_depth <= 21795.0\nsquared_error = 1.1\nsamples = 4\nvalue = 49.8"] ;
394 -> 402 ;
403 [label="surface_rpm <= 134.1\nsquared_error = 1.5\nsamples = 2\nvalue = 50.2"] ;
402 -> 403 ;
404 [label="squared_error = 0.0\nsamples = 1\nvalue = 52.0"] ;
403 -> 404 ;
405 [label="squared_error = -0.0\nsamples = 1\nvalue = 49.3"] ;
403 -> 405 ;
406 [label="min_depth <= 22261.0\nsquared_error = 0.0\nsamples = 2\nvalue = 49.3"] ;
402 -> 406 ;
407 [label="squared_error = 0.0\nsamples = 1\nvalue = 49.4"] ;
406 -> 407 ;
408 [label="squared_error = -0.0\nsamples = 1\nvalue = 49.2"] ;
406 -> 408 ;
409 [label="max_depth <= 22484.5\nsquared_error = 0.0\nsamples = 2\nvalue = 52.6"] ;
393 -> 409 ;
410 [label="squared_error = 0.0\nsamples = 1\nvalue = 52.6"] ;
409 -> 410 ;
411 [label="squared_error = 0.0\nsamples = 1\nvalue = 52.5"] ;
409 -> 411 ;
412 [label="surface_rpm <= 134.2\nsquared_error = 0.0\nsamples = 2\nvalue = 53.1"] ;
392 -> 412 ;
413 [label="squared_error = 0.0\nsamples = 1\nvalue = 53.1"] ;
412 -> 413 ;
414 [label="squared_error = 0.0\nsamples = 1\nvalue = 53.3"] ;
412 -> 414 ;
415 [label="surface_rpm <= 133.9\nsquared_error = 3.3\nsamples = 8\nvalue = 48.7"] ;
389 -> 415 ;
416 [label="formation_id_formation_51 <= 0.5\nsquared_error = 4.8\nsamples = 2\nvalue = 50.4"] ;
415 -> 416 ;
417 [label="squared_error = 0.0\nsamples = 1\nvalue = 48.2"] ;
416 -> 417 ;
418 [label="squared_error = -0.0\nsamples = 1\nvalue = 52.6"] ;
416 -> 418 ;
419 [label="surface_weight_on_bit <= 18.8\nsquared_error = 1.8\nsamples = 6\nvalue = 48.2"] ;
415 -> 419 ;
420 [label="surface_weight_on_bit <= 15.1\nsquared_error = 1.4\nsamples = 5\nvalue = 48.5"] ;
419 -> 420 ;
421 [label="surface_rpm <= 134.0\nsquared_error = 0.2\nsamples = 2\nvalue = 47.4"] ;
420 -> 421 ;
422 [label="squared_error = 0.0\nsamples = 1\nvalue = 47.9"] ;
421 -> 422 ;
423 [label="squared_error = 0.0\nsamples = 1\nvalue = 47.1"] ;
421 -> 423 ;
424 [label="formation_id_formation_51 <= 0.5\nsquared_error = 0.2\nsamples = 3\nvalue = 49.6"] ;
420 -> 424 ;
425 [label="surface_rpm <= 134.0\nsquared_error = 0.0\nsamples = 2\nvalue = 49.3"] ;
424 -> 425 ;
426 [label="squared_error = 0.0\nsamples = 1\nvalue = 49.4"] ;
425 -> 426 ;
427 [label="squared_error = -0.0\nsamples = 1\nvalue = 49.1"] ;
425 -> 427 ;
428 [label="squared_error = 0.0\nsamples = 1\nvalue = 50.2"] ;
424 -> 428 ;
429 [label="squared_error = -0.0\nsamples = 1\nvalue = 46.3"] ;
419 -> 429 ;
430 [label="formation_id_formation_51 <= 0.5\nsquared_error = 25.4\nsamples = 6\nvalue = 40.9"] ;
350 -> 430 ;
431 [label="formation_id_formation_81 <= 0.5\nsquared_error = 2.6\nsamples = 2\nvalue = 35.5"] ;
430 -> 431 ;
432 [label="squared_error = 0.0\nsamples = 1\nvalue = 36.6"] ;
431 -> 432 ;
433 [label="squared_error = 0.0\nsamples = 1\nvalue = 33.2"] ;
431 -> 433 ;
434 [label="surface_rpm <= 134.0\nsquared_error = 10.2\nsamples = 4\nvalue = 44.2"] ;
430 -> 434 ;
435 [label="surface_rpm <= 134.0\nsquared_error = 3.1\nsamples = 3\nvalue = 42.8"] ;
434 -> 435 ;
436 [label="min_depth <= 23235.0\nsquared_error = 0.7\nsamples = 2\nvalue = 43.8"] ;
435 -> 436 ;
437 [label="squared_error = 0.0\nsamples = 1\nvalue = 44.9"] ;
436 -> 437 ;
438 [label="squared_error = 0.0\nsamples = 1\nvalue = 43.2"] ;
436 -> 438 ;
439 [label="squared_error = -0.0\nsamples = 1\nvalue = 40.0"] ;
435 -> 439 ;
440 [label="squared_error = 0.0\nsamples = 1\nvalue = 49.8"] ;
434 -> 440 ;
441 [label="squared_error = -0.0\nsamples = 1\nvalue = 62.3"] ;
349 -> 441 ;
442 [label="max_depth <= 23772.5\nsquared_error = 20.0\nsamples = 33\nvalue = 53.9"] ;
348 -> 442 ;
443 [label="surface_rpm <= 133.9\nsquared_error = 58.5\nsamples = 2\nvalue = 61.4"] ;
442 -> 443 ;
444 [label="squared_error = 0.0\nsamples = 1\nvalue = 69.0"] ;
443 -> 444 ;
445 [label="squared_error = 0.0\nsamples = 1\nvalue = 53.8"] ;
443 -> 445 ;
446 [label="formation_id_formation_240 <= 0.5\nsquared_error = 12.6\nsamples = 31\nvalue = 53.3"] ;
442 -> 446 ;
447 [label="max_depth <= 27704.8\nsquared_error = 10.1\nsamples = 30\nvalue = 53.9"] ;
446 -> 447 ;
448 [label="max_depth <= 26984.5\nsquared_error = 19.1\nsamples = 10\nvalue = 55.8"] ;
447 -> 448 ;
449 [label="formation_id_formation_125 <= 0.5\nsquared_error = 3.7\nsamples = 6\nvalue = 53.1"] ;
448 -> 449 ;
450 [label="area_id_area_1 <= 0.5\nsquared_error = 1.6\nsamples = 5\nvalue = 53.6"] ;
449 -> 450 ;
451 [label="min_depth <= 23775.0\nsquared_error = 1.4\nsamples = 2\nvalue = 52.0"] ;
450 -> 451 ;
452 [label="squared_error = 0.0\nsamples = 1\nvalue = 53.2"] ;
451 -> 452 ;
453 [label="squared_error = 0.0\nsamples = 1\nvalue = 50.8"] ;
451 -> 453 ;
454 [label="max_depth <= 26504.5\nsquared_error = 0.5\nsamples = 3\nvalue = 54.1"] ;
450 -> 454 ;
455 [label="min_depth <= 25920.0\nsquared_error = 0.1\nsamples = 2\nvalue = 54.7"] ;
454 -> 455 ;
456 [label="squared_error = -0.0\nsamples = 1\nvalue = 54.9"] ;
455 -> 456 ;
457 [label="squared_error = -0.0\nsamples = 1\nvalue = 54.2"] ;
455 -> 457 ;
458 [label="squared_error = 0.0\nsamples = 1\nvalue = 53.3"] ;
454 -> 458 ;
459 [label="squared_error = 0.0\nsamples = 1\nvalue = 48.6"] ;
449 -> 459 ;
460 [label="surface_weight_on_bit <= 27.9\nsquared_error = 8.3\nsamples = 4\nvalue = 61.0"] ;
448 -> 460 ;
461 [label="min_depth <= 27315.0\nsquared_error = 1.3\nsamples = 2\nvalue = 57.8"] ;
460 -> 461 ;
462 [label="squared_error = 0.0\nsamples = 1\nvalue = 59.0"] ;
461 -> 462 ;
463 [label="squared_error = 0.0\nsamples = 1\nvalue = 56.6"] ;
461 -> 463 ;
464 [label="formation_id_formation_242 <= 0.5\nsquared_error = 1.2\nsamples = 2\nvalue = 63.2"] ;
460 -> 464 ;
465 [label="squared_error = 0.0\nsamples = 1\nvalue = 61.7"] ;
464 -> 465 ;
466 [label="squared_error = 0.0\nsamples = 1\nvalue = 64.0"] ;
464 -> 466 ;
467 [label="formation_id_formation_256 <= 0.5\nsquared_error = 3.8\nsamples = 20\nvalue = 53.1"] ;
447 -> 467 ;
468 [label="max_depth <= 28739.8\nsquared_error = 2.7\nsamples = 18\nvalue = 52.8"] ;
467 -> 468 ;
469 [label="max_depth <= 28574.8\nsquared_error = 2.7\nsamples = 15\nvalue = 52.9"] ;
468 -> 469 ;
470 [label="min_depth <= 28515.0\nsquared_error = 2.1\nsamples = 12\nvalue = 52.5"] ;
469 -> 470 ;
471 [label="max_depth <= 28139.8\nsquared_error = 1.4\nsamples = 11\nvalue = 52.7"] ;
470 -> 471 ;
472 [label="surface_weight_on_bit <= 40.4\nsquared_error = 1.2\nsamples = 9\nvalue = 52.4"] ;
471 -> 472 ;
473 [label="surface_rpm <= 130.1\nsquared_error = 1.1\nsamples = 7\nvalue = 52.1"] ;
472 -> 473 ;
474 [label="surface_weight_on_bit <= 36.5\nsquared_error = 0.1\nsamples = 3\nvalue = 51.7"] ;
473 -> 474 ;
475 [label="formation_id_formation_242 <= 0.5\nsquared_error = 0.1\nsamples = 2\nvalue = 51.5"] ;
474 -> 475 ;
476 [label="squared_error = 0.0\nsamples = 1\nvalue = 51.1"] ;
475 -> 476 ;
477 [label="squared_error = 0.0\nsamples = 1\nvalue = 51.7"] ;
475 -> 477 ;
478 [label="squared_error = 0.0\nsamples = 1\nvalue = 51.8"] ;
474 -> 478 ;
479 [label="max_depth <= 27929.8\nsquared_error = 1.8\nsamples = 4\nvalue = 52.5"] ;
473 -> 479 ;
480 [label="max_depth <= 27854.8\nsquared_error = 0.4\nsamples = 3\nvalue = 52.0"] ;
479 -> 480 ;
481 [label="surface_rpm <= 130.2\nsquared_error = 0.0\nsamples = 2\nvalue = 52.5"] ;
480 -> 481 ;
482 [label="squared_error = 0.0\nsamples = 1\nvalue = 52.6"] ;
481 -> 482 ;
483 [label="squared_error = 0.0\nsamples = 1\nvalue = 52.4"] ;
481 -> 483 ;
484 [label="squared_error = -0.0\nsamples = 1\nvalue = 51.2"] ;
480 -> 484 ;
485 [label="squared_error = 0.0\nsamples = 1\nvalue = 55.5"] ;
479 -> 485 ;
486 [label="max_depth <= 27944.8\nsquared_error = 0.1\nsamples = 2\nvalue = 53.4"] ;
472 -> 486 ;
487 [label="squared_error = 0.0\nsamples = 1\nvalue = 53.3"] ;
486 -> 487 ;
488 [label="squared_error = 0.0\nsamples = 1\nvalue = 53.9"] ;
486 -> 488 ;
489 [label="formation_id_formation_253 <= 0.5\nsquared_error = 0.0\nsamples = 2\nvalue = 54.2"] ;
471 -> 489 ;
490 [label="squared_error = 0.0\nsamples = 1\nvalue = 54.4"] ;
489 -> 490 ;
491 [label="squared_error = -0.0\nsamples = 1\nvalue = 54.1"] ;
489 -> 491 ;
492 [label="squared_error = -0.0\nsamples = 1\nvalue = 48.4"] ;
470 -> 492 ;
493 [label="surface_weight_on_bit <= 37.2\nsquared_error = 1.3\nsamples = 3\nvalue = 54.5"] ;
469 -> 493 ;
494 [label="max_depth <= 28649.8\nsquared_error = 0.5\nsamples = 2\nvalue = 55.1"] ;
493 -> 494 ;
495 [label="squared_error = 0.0\nsamples = 1\nvalue = 54.5"] ;
494 -> 495 ;
496 [label="squared_error = -0.0\nsamples = 1\nvalue = 55.9"] ;
494 -> 496 ;
497 [label="squared_error = 0.0\nsamples = 1\nvalue = 53.0"] ;
493 -> 497 ;
498 [label="max_depth <= 28827.4\nsquared_error = 0.3\nsamples = 3\nvalue = 51.2"] ;
468 -> 498 ;
499 [label="max_depth <= 28784.8\nsquared_error = 0.0\nsamples = 2\nvalue = 50.8"] ;
498 -> 499 ;
500 [label="squared_error = 0.0\nsamples = 1\nvalue = 50.6"] ;
499 -> 500 ;
501 [label="squared_error = 0.0\nsamples = 1\nvalue = 51.0"] ;
499 -> 501 ;
502 [label="squared_error = 0.0\nsamples = 1\nvalue = 51.9"] ;
498 -> 502 ;
503 [label="max_depth <= 28334.8\nsquared_error = 1.0\nsamples = 2\nvalue = 57.5"] ;
467 -> 503 ;
504 [label="squared_error = 0.0\nsamples = 1\nvalue = 58.5"] ;
503 -> 504 ;
505 [label="squared_error = -0.0\nsamples = 1\nvalue = 56.5"] ;
503 -> 505 ;
506 [label="squared_error = 0.0\nsamples = 1\nvalue = 47.5"] ;
446 -> 506 ;
507 [label="surface_weight_on_bit <= 31.3\nsquared_error = 46.5\nsamples = 26\nvalue = 46.2"] ;
347 -> 507 ;
508 [label="bit_model_id_bit_model_12 <= 0.5\nsquared_error = 31.4\nsamples = 25\nvalue = 47.1"] ;
507 -> 508 ;
509 [label="formation_id_formation_141 <= 0.5\nsquared_error = 22.0\nsamples = 23\nvalue = 47.9"] ;
508 -> 509 ;
510 [label="bit_model_id_bit_model_33 <= 0.5\nsquared_error = 14.4\nsamples = 22\nvalue = 48.4"] ;
509 -> 510 ;
511 [label="formation_id_formation_218 <= 0.5\nsquared_error = 11.6\nsamples = 18\nvalue = 47.5"] ;
510 -> 511 ;
512 [label="min_depth <= 19830.0\nsquared_error = 9.3\nsamples = 17\nvalue = 47.1"] ;
511 -> 512 ;
513 [label="min_depth <= 19410.0\nsquared_error = 6.5\nsamples = 12\nvalue = 47.9"] ;
512 -> 513 ;
514 [label="max_depth <= 19394.5\nsquared_error = 4.3\nsamples = 2\nvalue = 44.0"] ;
513 -> 514 ;
515 [label="squared_error = 0.0\nsamples = 1\nvalue = 47.0"] ;
514 -> 515 ;
516 [label="squared_error = -0.0\nsamples = 1\nvalue = 42.6"] ;
514 -> 516 ;
517 [label="surface_rpm <= 131.3\nsquared_error = 3.1\nsamples = 10\nvalue = 48.8"] ;
513 -> 517 ;
518 [label="surface_weight_on_bit <= 17.8\nsquared_error = 1.5\nsamples = 5\nvalue = 47.5"] ;
517 -> 518 ;
519 [label="surface_rpm <= 130.5\nsquared_error = 0.8\nsamples = 4\nvalue = 47.1"] ;
518 -> 519 ;
520 [label="squared_error = 0.0\nsamples = 1\nvalue = 48.8"] ;
519 -> 520 ;
521 [label="min_depth <= 19530.0\nsquared_error = 0.2\nsamples = 3\nvalue = 46.8"] ;
519 -> 521 ;
522 [label="squared_error = 0.0\nsamples = 1\nvalue = 47.4"] ;
521 -> 522 ;
523 [label="surface_rpm <= 130.7\nsquared_error = 0.0\nsamples = 2\nvalue = 46.4"] ;
521 -> 523 ;
524 [label="squared_error = 0.0\nsamples = 1\nvalue = 46.6"] ;
523 -> 524 ;
525 [label="squared_error = 0.0\nsamples = 1\nvalue = 46.3"] ;
523 -> 525 ;
526 [label="squared_error = -0.0\nsamples = 1\nvalue = 49.7"] ;
518 -> 526 ;
527 [label="surface_weight_on_bit <= 19.7\nsquared_error = 1.3\nsamples = 5\nvalue = 50.1"] ;
517 -> 527 ;
528 [label="min_depth <= 19695.0\nsquared_error = 0.5\nsamples = 4\nvalue = 50.5"] ;
527 -> 528 ;
529 [label="surface_weight_on_bit <= 16.0\nsquared_error = 0.3\nsamples = 3\nvalue = 50.7"] ;
528 -> 529 ;
530 [label="bit_model_id_bit_model_25 <= 0.5\nsquared_error = 0.0\nsamples = 2\nvalue = 51.1"] ;
529 -> 530 ;
531 [label="squared_error = 0.0\nsamples = 1\nvalue = 51.0"] ;
530 -> 531 ;
532 [label="squared_error = -0.0\nsamples = 1\nvalue = 51.2"] ;
530 -> 532 ;
533 [label="squared_error = 0.0\nsamples = 1\nvalue = 50.0"] ;
529 -> 533 ;
534 [label="squared_error = 0.0\nsamples = 1\nvalue = 49.4"] ;
528 -> 534 ;
535 [label="squared_error = -0.0\nsamples = 1\nvalue = 47.7"] ;
527 -> 535 ;
536 [label="surface_weight_on_bit <= 10.6\nsquared_error = 11.0\nsamples = 5\nvalue = 45.5"] ;
512 -> 536 ;
537 [label="squared_error = 0.0\nsamples = 1\nvalue = 53.3"] ;
536 -> 537 ;
538 [label="bit_model_id_bit_model_32 <= 0.5\nsquared_error = 2.6\nsamples = 4\nvalue = 44.3"] ;
536 -> 538 ;
539 [label="max_depth <= 26024.8\nsquared_error = 0.7\nsamples = 3\nvalue = 43.0"] ;
538 -> 539 ;
540 [label="surface_rpm <= 126.8\nsquared_error = 0.1\nsamples = 2\nvalue = 42.6"] ;
539 -> 540 ;
541 [label="squared_error = 0.0\nsamples = 1\nvalue = 43.1"] ;
540 -> 541 ;
542 [label="squared_error = 0.0\nsamples = 1\nvalue = 42.4"] ;
540 -> 542 ;
543 [label="squared_error = -0.0\nsamples = 1\nvalue = 44.4"] ;
539 -> 543 ;
544 [label="squared_error = 0.0\nsamples = 1\nvalue = 46.1"] ;
538 -> 544 ;
545 [label="squared_error = 0.0\nsamples = 1\nvalue = 55.7"] ;
511 -> 545 ;
546 [label="min_depth <= 25095.2\nsquared_error = 9.7\nsamples = 4\nvalue = 51.8"] ;
510 -> 546 ;
547 [label="squared_error = 0.0\nsamples = 1\nvalue = 47.4"] ;
546 -> 547 ;
548 [label="formation_id_formation_136 <= 0.5\nsquared_error = 2.7\nsamples = 3\nvalue = 53.6"] ;
546 -> 548 ;
549 [label="surface_weight_on_bit <= 27.2\nsquared_error = 0.8\nsamples = 2\nvalue = 52.9"] ;
548 -> 549 ;
550 [label="squared_error = 0.0\nsamples = 1\nvalue = 53.8"] ;
549 -> 550 ;
551 [label="squared_error = -0.0\nsamples = 1\nvalue = 52.0"] ;
549 -> 551 ;
552 [label="squared_error = 0.0\nsamples = 1\nvalue = 56.5"] ;
548 -> 552 ;
553 [label="squared_error = 0.0\nsamples = 1\nvalue = 31.7"] ;
509 -> 553 ;
554 [label="formation_id_formation_142 <= 0.5\nsquared_error = 12.0\nsamples = 2\nvalue = 34.1"] ;
508 -> 554 ;
555 [label="squared_error = 0.0\nsamples = 1\nvalue = 37.6"] ;
554 -> 555 ;
556 [label="squared_error = 0.0\nsamples = 1\nvalue = 30.6"] ;
554 -> 556 ;
557 [label="squared_error = -0.0\nsamples = 1\nvalue = 28.9"] ;
507 -> 557 ;
558 [label="surface_weight_on_bit <= 20.8\nsquared_error = 60.9\nsamples = 3\nvalue = 64.8"] ;
346 -> 558 ;
559 [label="squared_error = 0.0\nsamples = 1\nvalue = 72.0"] ;
558 -> 559 ;
560 [label="surface_rpm <= 131.4\nsquared_error = 19.2\nsamples = 2\nvalue = 57.7"] ;
558 -> 560 ;
561 [label="squared_error = 0.0\nsamples = 1\nvalue = 62.1"] ;
560 -> 561 ;
562 [label="squared_error = 0.0\nsamples = 1\nvalue = 53.3"] ;
560 -> 562 ;
563 [label="max_depth <= 23699.5\nsquared_error = 246.0\nsamples = 2\nvalue = 76.1"] ;
345 -> 563 ;
564 [label="squared_error = 0.0\nsamples = 1\nvalue = 91.7"] ;
563 -> 564 ;
565 [label="squared_error = 0.0\nsamples = 1\nvalue = 60.4"] ;
563 -> 565 ;
566 [label="surface_rpm <= 134.2\nsquared_error = 116.4\nsamples = 52\nvalue = 55.3"] ;
344 -> 566 ;
567 [label="squared_error = 0.0\nsamples = 1\nvalue = 104.3"] ;
566 -> 567 ;
568 [label="surface_weight_on_bit <= 36.5\nsquared_error = 82.8\nsamples = 51\nvalue = 54.6"] ;
566 -> 568 ;
569 [label="formation_id_formation_186 <= 0.5\nsquared_error = 54.6\nsamples = 48\nvalue = 53.6"] ;
568 -> 569 ;
570 [label="formation_id_formation_240 <= 0.5\nsquared_error = 43.4\nsamples = 47\nvalue = 53.2"] ;
569 -> 570 ;
571 [label="formation_id_formation_167 <= 0.5\nsquared_error = 36.9\nsamples = 46\nvalue = 52.9"] ;
570 -> 571 ;
572 [label="max_depth <= 27074.6\nsquared_error = 31.6\nsamples = 45\nvalue = 52.6"] ;
571 -> 572 ;
573 [label="surface_weight_on_bit <= 16.4\nsquared_error = 23.6\nsamples = 43\nvalue = 53.2"] ;
572 -> 573 ;
574 [label="surface_weight_on_bit <= 13.8\nsquared_error = 16.4\nsamples = 24\nvalue = 54.7"] ;
573 -> 574 ;
575 [label="min_depth <= 20550.0\nsquared_error = 3.7\nsamples = 15\nvalue = 53.7"] ;
574 -> 575 ;
576 [label="surface_weight_on_bit <= 13.0\nsquared_error = 2.1\nsamples = 6\nvalue = 55.1"] ;
575 -> 576 ;
577 [label="formation_id_formation_2 <= 0.5\nsquared_error = 0.9\nsamples = 5\nvalue = 55.5"] ;
576 -> 577 ;
578 [label="squared_error = 0.0\nsamples = 1\nvalue = 54.2"] ;
577 -> 578 ;
579 [label="max_depth <= 19784.5\nsquared_error = 0.7\nsamples = 4\nvalue = 55.8"] ;
577 -> 579 ;
580 [label="squared_error = 0.0\nsamples = 1\nvalue = 53.7"] ;
579 -> 580 ;
581 [label="surface_weight_on_bit <= 7.9\nsquared_error = 0.0\nsamples = 3\nvalue = 56.1"] ;
579 -> 581 ;
582 [label="squared_error = 0.0\nsamples = 1\nvalue = 56.0"] ;
581 -> 582 ;
583 [label="surface_rpm <= 134.2\nsquared_error = 0.0\nsamples = 2\nvalue = 56.1"] ;
581 -> 583 ;
584 [label="squared_error = 0.0\nsamples = 1\nvalue = 56.1"] ;
583 -> 584 ;
585 [label="squared_error = -0.0\nsamples = 1\nvalue = 56.2"] ;
583 -> 585 ;
586 [label="squared_error = -0.0\nsamples = 1\nvalue = 51.5"] ;
576 -> 586 ;
587 [label="formation_id_formation_108 <= 0.5\nsquared_error = 1.0\nsamples = 9\nvalue = 52.2"] ;
575 -> 587 ;
588 [label="max_depth <= 21674.5\nsquared_error = 0.0\nsamples = 5\nvalue = 53.1"] ;
587 -> 588 ;
589 [label="squared_error = 0.0\nsamples = 1\nvalue = 53.5"] ;
588 -> 589 ;
590 [label="min_depth <= 21705.0\nsquared_error = 0.0\nsamples = 4\nvalue = 53.1"] ;
588 -> 590 ;
591 [label="squared_error = 0.0\nsamples = 1\nvalue = 53.0"] ;
590 -> 591 ;
592 [label="max_depth <= 21839.5\nsquared_error = 0.0\nsamples = 3\nvalue = 53.2"] ;
590 -> 592 ;
593 [label="squared_error = 0.0\nsamples = 1\nvalue = 53.2"] ;
592 -> 593 ;
594 [label="surface_weight_on_bit <= 9.5\nsquared_error = 0.0\nsamples = 2\nvalue = 53.1"] ;
592 -> 594 ;
595 [label="squared_error = 0.0\nsamples = 1\nvalue = 53.1"] ;
594 -> 595 ;
596 [label="squared_error = 0.0\nsamples = 1\nvalue = 53.1"] ;
594 -> 596 ;
597 [label="max_depth <= 20939.5\nsquared_error = 0.0\nsamples = 4\nvalue = 51.1"] ;
587 -> 597 ;
598 [label="min_depth <= 20685.0\nsquared_error = 0.0\nsamples = 3\nvalue = 51.1"] ;
597 -> 598 ;
599 [label="squared_error = 0.0\nsamples = 1\nvalue = 51.2"] ;
598 -> 599 ;
600 [label="max_depth <= 20819.5\nsquared_error = 0.0\nsamples = 2\nvalue = 51.0"] ;
598 -> 600 ;
601 [label="squared_error = 0.0\nsamples = 1\nvalue = 51.0"] ;
600 -> 601 ;
602 [label="squared_error = -0.0\nsamples = 1\nvalue = 51.0"] ;
600 -> 602 ;
603 [label="squared_error = -0.0\nsamples = 1\nvalue = 51.4"] ;
597 -> 603 ;
604 [label="formation_id_formation_108 <= 0.5\nsquared_error = 34.2\nsamples = 9\nvalue = 56.6"] ;
574 -> 604 ;
605 [label="max_depth <= 23174.5\nsquared_error = 14.7\nsamples = 7\nvalue = 54.1"] ;
604 -> 605 ;
606 [label="surface_weight_on_bit <= 14.4\nsquared_error = 4.6\nsamples = 4\nvalue = 51.8"] ;
605 -> 606 ;
607 [label="squared_error = 0.0\nsamples = 1\nvalue = 47.3"] ;
606 -> 607 ;
608 [label="min_depth <= 20508.8\nsquared_error = 0.8\nsamples = 3\nvalue = 52.7"] ;
606 -> 608 ;
609 [label="squared_error = 0.0\nsamples = 1\nvalue = 50.9"] ;
608 -> 609 ;
610 [label="formation_id_formation_113 <= 0.5\nsquared_error = 0.0\nsamples = 2\nvalue = 53.1"] ;
608 -> 610 ;
611 [label="squared_error = 0.0\nsamples = 1\nvalue = 53.2"] ;
610 -> 611 ;
612 [label="squared_error = -0.0\nsamples = 1\nvalue = 53.1"] ;
610 -> 612 ;
613 [label="surface_weight_on_bit <= 15.1\nsquared_error = 3.1\nsamples = 3\nvalue = 58.7"] ;
605 -> 613 ;
614 [label="squared_error = 0.0\nsamples = 1\nvalue = 61.1"] ;
613 -> 614 ;
615 [label="formation_id_formation_218 <= 0.5\nsquared_error = 0.0\nsamples = 2\nvalue = 57.4"] ;
613 -> 615 ;
616 [label="squared_error = 0.0\nsamples = 1\nvalue = 57.2"] ;
615 -> 616 ;
617 [label="squared_error = 0.0\nsamples = 1\nvalue = 57.7"] ;
615 -> 617 ;
618 [label="surface_weight_on_bit <= 13.9\nsquared_error = 17.7\nsamples = 2\nvalue = 64.1"] ;
604 -> 618 ;
619 [label="squared_error = 0.0\nsamples = 1\nvalue = 61.1"] ;
618 -> 619 ;
620 [label="squared_error = -0.0\nsamples = 1\nvalue = 70.0"] ;
618 -> 620 ;
621 [label="min_depth <= 26250.0\nsquared_error = 26.7\nsamples = 19\nvalue = 51.3"] ;
573 -> 621 ;
622 [label="formation_id_formation_225 <= 0.5\nsquared_error = 21.1\nsamples = 14\nvalue = 50.1"] ;
621 -> 622 ;
623 [label="formation_id_formation_108 <= 0.5\nsquared_error = 16.8\nsamples = 13\nvalue = 49.5"] ;
622 -> 623 ;
624 [label="surface_rpm <= 138.7\nsquared_error = 13.2\nsamples = 12\nvalue = 50.0"] ;
623 -> 624 ;
625 [label="surface_rpm <= 137.8\nsquared_error = 11.0\nsamples = 5\nvalue = 52.6"] ;
624 -> 625 ;
626 [label="bit_model_id_bit_model_2 <= 0.5\nsquared_error = 4.1\nsamples = 3\nvalue = 50.4"] ;
625 -> 626 ;
627 [label="max_depth <= 22319.5\nsquared_error = 0.6\nsamples = 2\nvalue = 48.8"] ;
626 -> 627 ;
628 [label="squared_error = 0.0\nsamples = 1\nvalue = 49.3"] ;
627 -> 628 ;
629 [label="squared_error = 0.0\nsamples = 1\nvalue = 47.7"] ;
627 -> 629 ;
630 [label="squared_error = -0.0\nsamples = 1\nvalue = 52.7"] ;
626 -> 630 ;
631 [label="bit_model_id_bit_model_32 <= 0.5\nsquared_error = 0.4\nsamples = 2\nvalue = 56.3"] ;
625 -> 631 ;
632 [label="squared_error = 0.0\nsamples = 1\nvalue = 56.7"] ;
631 -> 632 ;
633 [label="squared_error = 0.0\nsamples = 1\nvalue = 55.4"] ;
631 -> 633 ;
634 [label="max_depth <= 23984.5\nsquared_error = 5.6\nsamples = 7\nvalue = 48.0"] ;
624 -> 634 ;
635 [label="bit_model_id_bit_model_31 <= 0.5\nsquared_error = 2.0\nsamples = 5\nvalue = 48.9"] ;
634 -> 635 ;
636 [label="area_id_area_1 <= 0.5\nsquared_error = 0.8\nsamples = 4\nvalue = 48.5"] ;
635 -> 636 ;
637 [label="min_depth <= 21240.0\nsquared_error = 0.1\nsamples = 2\nvalue = 49.0"] ;
636 -> 637 ;
638 [label="squared_error = 0.0\nsamples = 1\nvalue = 48.9"] ;
637 -> 638 ;
639 [label="squared_error = 0.0\nsamples = 1\nvalue = 49.7"] ;
637 -> 639 ;
640 [label="formation_id_formation_138 <= 0.5\nsquared_error = 0.1\nsamples = 2\nvalue = 47.2"] ;
636 -> 640 ;
641 [label="squared_error = 0.0\nsamples = 1\nvalue = 47.4"] ;
640 -> 641 ;
642 [label="squared_error = 0.0\nsamples = 1\nvalue = 46.9"] ;
640 -> 642 ;
643 [label="squared_error = -0.0\nsamples = 1\nvalue = 52.0"] ;
635 -> 643 ;
644 [label="bit_model_id_bit_model_3 <= 0.5\nsquared_error = 1.9\nsamples = 2\nvalue = 44.2"] ;
634 -> 644 ;
645 [label="squared_error = 0.0\nsamples = 1\nvalue = 45.5"] ;
644 -> 645 ;
646 [label="squared_error = -0.0\nsamples = 1\nvalue = 42.8"] ;
644 -> 646 ;
647 [label="squared_error = 0.0\nsamples = 1\nvalue = 40.7"] ;
623 -> 647 ;
648 [label="squared_error = -0.0\nsamples = 1\nvalue = 60.0"] ;
622 -> 648 ;
649 [label="formation_id_formation_48 <= 0.5\nsquared_error = 21.3\nsamples = 5\nvalue = 55.6"] ;
621 -> 649 ;
650 [label="bit_model_id_bit_model_34 <= 0.5\nsquared_error = 15.4\nsamples = 4\nvalue = 56.9"] ;
649 -> 650 ;
651 [label="surface_rpm <= 137.6\nsquared_error = 0.4\nsamples = 3\nvalue = 58.9"] ;
650 -> 651 ;
652 [label="squared_error = 0.0\nsamples = 1\nvalue = 57.9"] ;
651 -> 652 ;
653 [label="surface_rpm <= 139.5\nsquared_error = 0.1\nsamples = 2\nvalue = 59.2"] ;
651 -> 653 ;
654 [label="squared_error = 0.0\nsamples = 1\nvalue = 59.6"] ;
653 -> 654 ;
655 [label="squared_error = 0.0\nsamples = 1\nvalue = 59.0"] ;
653 -> 655 ;
656 [label="squared_error = -0.0\nsamples = 1\nvalue = 49.2"] ;
650 -> 656 ;
657 [label="squared_error = -0.0\nsamples = 1\nvalue = 49.1"] ;
649 -> 657 ;
658 [label="surface_rpm <= 139.8\nsquared_error = 1.8\nsamples = 2\nvalue = 39.2"] ;
572 -> 658 ;
659 [label="squared_error = 0.0\nsamples = 1\nvalue = 40.1"] ;
658 -> 659 ;
660 [label="squared_error = 0.0\nsamples = 1\nvalue = 37.3"] ;
658 -> 660 ;
661 [label="squared_error = 0.0\nsamples = 1\nvalue = 72.0"] ;
571 -> 661 ;
662 [label="squared_error = -0.0\nsamples = 1\nvalue = 74.5"] ;
570 -> 662 ;
663 [label="squared_error = -0.0\nsamples = 1\nvalue = 81.5"] ;
569 -> 663 ;
664 [label="min_depth <= 28410.0\nsquared_error = 196.8\nsamples = 3\nvalue = 76.6"] ;
568 -> 664 ;
665 [label="min_depth <= 24135.0\nsquared_error = 42.4\nsamples = 2\nvalue = 85.8"] ;
664 -> 665 ;
666 [label="squared_error = 0.0\nsamples = 1\nvalue = 79.3"] ;
665 -> 666 ;
667 [label="squared_error = 0.0\nsamples = 1\nvalue = 92.3"] ;
665 -> 667 ;
668 [label="squared_error = -0.0\nsamples = 1\nvalue = 58.3"] ;
664 -> 668 ;
669 [label="squared_error = -0.0\nsamples = 1\nvalue = 70.3"] ;
343 -> 669 ;
670 [label="squared_error = -0.0\nsamples = 1\nvalue = 32.6"] ;
338 -> 670 ;
671 [label="surface_rpm <= 139.6\nsquared_error = 4.6\nsamples = 7\nvalue = 38.5"] ;
337 -> 671 ;
672 [label="min_depth <= 22740.0\nsquared_error = 3.1\nsamples = 3\nvalue = 36.5"] ;
671 -> 672 ;
673 [label="max_depth <= 22724.5\nsquared_error = 0.1\nsamples = 2\nvalue = 37.5"] ;
672 -> 673 ;
674 [label="squared_error = 0.0\nsamples = 1\nvalue = 37.7"] ;
673 -> 674 ;
675 [label="squared_error = 0.0\nsamples = 1\nvalue = 37.1"] ;
673 -> 675 ;
676 [label="squared_error = 0.0\nsamples = 1\nvalue = 33.5"] ;
672 -> 676 ;
677 [label="max_depth <= 22765.5\nsquared_error = 0.3\nsamples = 4\nvalue = 40.1"] ;
671 -> 677 ;
678 [label="surface_weight_on_bit <= 15.5\nsquared_error = 0.1\nsamples = 3\nvalue = 40.3"] ;
677 -> 678 ;
679 [label="squared_error = 0.0\nsamples = 1\nvalue = 40.7"] ;
678 -> 679 ;
680 [label="surface_rpm <= 139.7\nsquared_error = 0.0\nsamples = 2\nvalue = 40.1"] ;
678 -> 680 ;
681 [label="squared_error = 0.0\nsamples = 1\nvalue = 40.1"] ;
680 -> 681 ;
682 [label="squared_error = -0.0\nsamples = 1\nvalue = 40.1"] ;
680 -> 682 ;
683 [label="squared_error = 0.0\nsamples = 1\nvalue = 39.1"] ;
677 -> 683 ;
684 [label="squared_error = 0.0\nsamples = 1\nvalue = 97.8"] ;
336 -> 684 ;
685 [label="squared_error = -0.0\nsamples = 1\nvalue = 98.1"] ;
335 -> 685 ;
686 [label="squared_error = -0.0\nsamples = 1\nvalue = 98.6"] ;
334 -> 686 ;
687 [label="max_depth <= 20744.5\nsquared_error = 198.9\nsamples = 7\nvalue = 66.9"] ;
333 -> 687 ;
688 [label="surface_rpm <= 120.1\nsquared_error = 40.3\nsamples = 6\nvalue = 62.8"] ;
687 -> 688 ;
689 [label="squared_error = 0.0\nsamples = 1\nvalue = 79.4"] ;
688 -> 689 ;
690 [label="drillbit_size <= 13.4\nsquared_error = 10.8\nsamples = 5\nvalue = 61.0"] ;
688 -> 690 ;
691 [label="surface_rpm <= 120.3\nsquared_error = 2.6\nsamples = 4\nvalue = 58.9"] ;
690 -> 691 ;
692 [label="squared_error = 0.0\nsamples = 1\nvalue = 62.3"] ;
691 -> 692 ;
693 [label="min_depth <= 20400.0\nsquared_error = 0.3\nsamples = 3\nvalue = 58.2"] ;
691 -> 693 ;
694 [label="squared_error = 0.0\nsamples = 1\nvalue = 57.5"] ;
693 -> 694 ;
695 [label="max_depth <= 20534.5\nsquared_error = 0.1\nsamples = 2\nvalue = 58.6"] ;
693 -> 695 ;
696 [label="squared_error = 0.0\nsamples = 1\nvalue = 58.3"] ;
695 -> 696 ;
697 [label="squared_error = 0.0\nsamples = 1\nvalue = 58.8"] ;
695 -> 697 ;
698 [label="squared_error = 0.0\nsamples = 1\nvalue = 65.2"] ;
690 -> 698 ;
699 [label="squared_error = -0.0\nsamples = 1\nvalue = 107.1"] ;
687 -> 699 ;
700 [label="formation_id_formation_76 <= 0.5\nsquared_error = 98.5\nsamples = 64\nvalue = 57.7"] ;
286 -> 700 ;
701 [label="min_depth <= 28365.0\nsquared_error = 34.1\nsamples = 60\nvalue = 56.7"] ;
700 -> 701 ;
702 [label="surface_rpm <= 119.8\nsquared_error = 25.6\nsamples = 56\nvalue = 57.5"] ;
701 -> 702 ;
703 [label="formation_id_formation_78 <= 0.5\nsquared_error = 31.4\nsamples = 33\nvalue = 55.7"] ;
702 -> 703 ;
704 [label="max_depth <= 28094.5\nsquared_error = 25.5\nsamples = 32\nvalue = 56.0"] ;
703 -> 704 ;
705 [label="surface_weight_on_bit <= 12.4\nsquared_error = 22.3\nsamples = 29\nvalue = 55.3"] ;
704 -> 705 ;
706 [label="surface_weight_on_bit <= 8.3\nsquared_error = 14.7\nsamples = 14\nvalue = 52.7"] ;
705 -> 706 ;
707 [label="formation_id_formation_74 <= 0.5\nsquared_error = 1.1\nsamples = 4\nvalue = 57.4"] ;
706 -> 707 ;
708 [label="min_depth <= 28006.2\nsquared_error = 0.0\nsamples = 3\nvalue = 56.7"] ;
707 -> 708 ;
709 [label="surface_weight_on_bit <= 7.0\nsquared_error = 0.0\nsamples = 2\nvalue = 56.6"] ;
708 -> 709 ;
710 [label="squared_error = 0.0\nsamples = 1\nvalue = 56.6"] ;
709 -> 710 ;
711 [label="squared_error = -0.0\nsamples = 1\nvalue = 56.6"] ;
709 -> 711 ;
712 [label="squared_error = 0.0\nsamples = 1\nvalue = 56.8"] ;
708 -> 712 ;
713 [label="squared_error = 0.0\nsamples = 1\nvalue = 58.9"] ;
707 -> 713 ;
714 [label="formation_id_formation_234 <= 0.5\nsquared_error = 9.0\nsamples = 10\nvalue = 51.1"] ;
706 -> 714 ;
715 [label="min_depth <= 27075.2\nsquared_error = 6.0\nsamples = 9\nvalue = 50.6"] ;
714 -> 715 ;
716 [label="min_depth <= 25920.0\nsquared_error = 2.0\nsamples = 4\nvalue = 48.9"] ;
715 -> 716 ;
717 [label="squared_error = 0.0\nsamples = 1\nvalue = 47.1"] ;
716 -> 717 ;
718 [label="surface_rpm <= 119.7\nsquared_error = 0.6\nsamples = 3\nvalue = 49.8"] ;
716 -> 718 ;
719 [label="formation_id_formation_75 <= 0.5\nsquared_error = 0.0\nsamples = 2\nvalue = 49.0"] ;
718 -> 719 ;
720 [label="squared_error = 0.0\nsamples = 1\nvalue = 48.9"] ;
719 -> 720 ;
721 [label="squared_error = -0.0\nsamples = 1\nvalue = 49.1"] ;
719 -> 721 ;
722 [label="squared_error = -0.0\nsamples = 1\nvalue = 50.5"] ;
718 -> 722 ;
723 [label="surface_rpm <= 119.7\nsquared_error = 2.2\nsamples = 5\nvalue = 52.8"] ;
715 -> 723 ;
724 [label="max_depth <= 27884.5\nsquared_error = 1.3\nsamples = 3\nvalue = 51.4"] ;
723 -> 724 ;
725 [label="formation_id_formation_83 <= 0.5\nsquared_error = 0.5\nsamples = 2\nvalue = 52.1"] ;
724 -> 725 ;
726 [label="squared_error = 0.0\nsamples = 1\nvalue = 52.8"] ;
725 -> 726 ;
727 [label="squared_error = 0.0\nsamples = 1\nvalue = 51.4"] ;
725 -> 727 ;
728 [label="squared_error = -0.0\nsamples = 1\nvalue = 50.0"] ;
724 -> 728 ;
729 [label="surface_weight_on_bit <= 11.3\nsquared_error = 0.1\nsamples = 2\nvalue = 53.9"] ;
723 -> 729 ;
730 [label="squared_error = 0.0\nsamples = 1\nvalue = 53.3"] ;
729 -> 730 ;
731 [label="squared_error = -0.0\nsamples = 1\nvalue = 54.1"] ;
729 -> 731 ;
732 [label="squared_error = 0.0\nsamples = 1\nvalue = 58.4"] ;
714 -> 732 ;
733 [label="formation_id_formation_74 <= 0.5\nsquared_error = 15.3\nsamples = 15\nvalue = 58.2"] ;
705 -> 733 ;
734 [label="surface_rpm <= 119.8\nsquared_error = 4.8\nsamples = 14\nvalue = 58.9"] ;
733 -> 734 ;
735 [label="max_depth <= 27359.5\nsquared_error = 3.9\nsamples = 13\nvalue = 59.2"] ;
734 -> 735 ;
736 [label="min_depth <= 24600.0\nsquared_error = 3.2\nsamples = 10\nvalue = 59.8"] ;
735 -> 736 ;
737 [label="squared_error = 0.0\nsamples = 1\nvalue = 55.6"] ;
736 -> 737 ;
738 [label="formation_id_formation_234 <= 0.5\nsquared_error = 1.9\nsamples = 9\nvalue = 60.2"] ;
736 -> 738 ;
739 [label="surface_rpm <= 114.9\nsquared_error = 1.6\nsamples = 8\nvalue = 60.7"] ;
738 -> 739 ;
740 [label="squared_error = 0.0\nsamples = 1\nvalue = 58.6"] ;
739 -> 740 ;
741 [label="surface_weight_on_bit <= 12.9\nsquared_error = 0.4\nsamples = 7\nvalue = 61.3"] ;
739 -> 741 ;
742 [label="formation_id_formation_63 <= 0.5\nsquared_error = 0.0\nsamples = 2\nvalue = 60.3"] ;
741 -> 742 ;
743 [label="squared_error = 0.0\nsamples = 1\nvalue = 60.3"] ;
742 -> 743 ;
744 [label="squared_error = 0.0\nsamples = 1\nvalue = 60.3"] ;
742 -> 744 ;
745 [label="surface_weight_on_bit <= 16.1\nsquared_error = 0.1\nsamples = 5\nvalue = 61.7"] ;
741 -> 745 ;
746 [label="surface_rpm <= 119.7\nsquared_error = 0.0\nsamples = 3\nvalue = 61.9"] ;
745 -> 746 ;
747 [label="surface_rpm <= 119.7\nsquared_error = 0.0\nsamples = 2\nvalue = 61.9"] ;
746 -> 747 ;
748 [label="squared_error = 0.0\nsamples = 1\nvalue = 61.9"] ;
747 -> 748 ;
749 [label="squared_error = 0.0\nsamples = 1\nvalue = 61.9"] ;
747 -> 749 ;
750 [label="squared_error = -0.0\nsamples = 1\nvalue = 61.8"] ;
746 -> 750 ;
751 [label="surface_weight_on_bit <= 19.2\nsquared_error = 0.0\nsamples = 2\nvalue = 61.4"] ;
745 -> 751 ;
752 [label="squared_error = 0.0\nsamples = 1\nvalue = 61.4"] ;
751 -> 752 ;
753 [label="squared_error = 0.0\nsamples = 1\nvalue = 61.3"] ;
751 -> 753 ;
754 [label="squared_error = -0.0\nsamples = 1\nvalue = 58.8"] ;
738 -> 754 ;
755 [label="min_depth <= 27585.0\nsquared_error = 1.1\nsamples = 3\nvalue = 57.3"] ;
735 -> 755 ;
756 [label="squared_error = -0.0\nsamples = 1\nvalue = 58.1"] ;
755 -> 756 ;
757 [label="min_depth <= 27645.0\nsquared_error = 0.5\nsamples = 2\nvalue = 56.2"] ;
755 -> 757 ;
758 [label="squared_error = 0.0\nsamples = 1\nvalue = 55.4"] ;
757 -> 758 ;
759 [label="squared_error = 0.0\nsamples = 1\nvalue = 56.9"] ;
757 -> 759 ;
760 [label="squared_error = 0.0\nsamples = 1\nvalue = 54.5"] ;
734 -> 760 ;
761 [label="squared_error = -0.0\nsamples = 1\nvalue = 43.8"] ;
733 -> 761 ;
762 [label="surface_rpm <= 119.7\nsquared_error = 1.4\nsamples = 3\nvalue = 62.9"] ;
704 -> 762 ;
763 [label="surface_rpm <= 119.6\nsquared_error = 0.0\nsamples = 2\nvalue = 62.3"] ;
762 -> 763 ;
764 [label="squared_error = 0.0\nsamples = 1\nvalue = 62.0"] ;
763 -> 764 ;
765 [label="squared_error = 0.0\nsamples = 1\nvalue = 62.4"] ;
763 -> 765 ;
766 [label="squared_error = -0.0\nsamples = 1\nvalue = 65.2"] ;
762 -> 766 ;
767 [label="squared_error = -0.0\nsamples = 1\nvalue = 38.1"] ;
703 -> 767 ;
768 [label="min_depth <= 25380.0\nsquared_error = 7.2\nsamples = 23\nvalue = 60.0"] ;
702 -> 768 ;
769 [label="surface_rpm <= 119.9\nsquared_error = 4.8\nsamples = 20\nvalue = 59.3"] ;
768 -> 769 ;
770 [label="min_depth <= 25275.0\nsquared_error = 4.7\nsamples = 17\nvalue = 58.8"] ;
769 -> 770 ;
771 [label="surface_rpm <= 119.9\nsquared_error = 4.1\nsamples = 15\nvalue = 59.1"] ;
770 -> 771 ;
772 [label="surface_rpm <= 119.8\nsquared_error = 2.2\nsamples = 7\nvalue = 60.3"] ;
771 -> 772 ;
773 [label="surface_rpm <= 119.8\nsquared_error = 0.2\nsamples = 2\nvalue = 58.9"] ;
772 -> 773 ;
774 [label="squared_error = 0.0\nsamples = 1\nvalue = 58.4"] ;
773 -> 774 ;
775 [label="squared_error = 0.0\nsamples = 1\nvalue = 59.3"] ;
773 -> 775 ;
776 [label="min_depth <= 25110.0\nsquared_error = 1.9\nsamples = 5\nvalue = 60.9"] ;
772 -> 776 ;
777 [label="max_depth <= 24944.5\nsquared_error = 0.0\nsamples = 3\nvalue = 61.5"] ;
776 -> 777 ;
778 [label="formation_id_formation_63 <= 0.5\nsquared_error = 0.0\nsamples = 2\nvalue = 61.6"] ;
777 -> 778 ;
779 [label="squared_error = 0.0\nsamples = 1\nvalue = 61.6"] ;
778 -> 779 ;
780 [label="squared_error = 0.0\nsamples = 1\nvalue = 61.7"] ;
778 -> 780 ;
781 [label="squared_error = 0.0\nsamples = 1\nvalue = 61.3"] ;
777 -> 781 ;
782 [label="max_depth <= 25244.5\nsquared_error = 3.2\nsamples = 2\nvalue = 59.9"] ;
776 -> 782 ;
783 [label="squared_error = 0.0\nsamples = 1\nvalue = 58.1"] ;
782 -> 783 ;
784 [label="squared_error = 0.0\nsamples = 1\nvalue = 61.7"] ;
782 -> 784 ;
785 [label="formation_id_formation_51 <= 0.5\nsquared_error = 3.9\nsamples = 8\nvalue = 58.5"] ;
771 -> 785 ;
786 [label="min_depth <= 24960.0\nsquared_error = 2.9\nsamples = 6\nvalue = 57.7"] ;
785 -> 786 ;
787 [label="formation_id_formation_56 <= 0.5\nsquared_error = 1.4\nsamples = 5\nvalue = 57.2"] ;
786 -> 787 ;
788 [label="surface_weight_on_bit <= 9.6\nsquared_error = 0.7\nsamples = 3\nvalue = 56.8"] ;
787 -> 788 ;
789 [label="squared_error = 0.0\nsamples = 1\nvalue = 57.6"] ;
788 -> 789 ;
790 [label="formation_id_formation_62 <= 0.5\nsquared_error = 0.2\nsamples = 2\nvalue = 56.1"] ;
788 -> 790 ;
791 [label="squared_error = 0.0\nsamples = 1\nvalue = 55.7"] ;
790 -> 791 ;
792 [label="squared_error = 0.0\nsamples = 1\nvalue = 56.7"] ;
790 -> 792 ;
793 [label="surface_weight_on_bit <= 16.4\nsquared_error = 1.9\nsamples = 2\nvalue = 58.1"] ;
787 -> 793 ;
794 [label="squared_error = 0.0\nsamples = 1\nvalue = 60.0"] ;
793 -> 794 ;
795 [label="squared_error = -0.0\nsamples = 1\nvalue = 57.1"] ;
793 -> 795 ;
796 [label="squared_error = -0.0\nsamples = 1\nvalue = 61.5"] ;
786 -> 796 ;
797 [label="surface_weight_on_bit <= 11.7\nsquared_error = 2.3\nsamples = 2\nvalue = 60.0"] ;
785 -> 797 ;
798 [label="squared_error = 0.0\nsamples = 1\nvalue = 62.1"] ;
797 -> 798 ;
799 [label="squared_error = 0.0\nsamples = 1\nvalue = 58.9"] ;
797 -> 799 ;
800 [label="max_depth <= 25334.5\nsquared_error = 3.8\nsamples = 2\nvalue = 56.2"] ;
770 -> 800 ;
801 [label="squared_error = 0.0\nsamples = 1\nvalue = 54.3"] ;
800 -> 801 ;
802 [label="squared_error = 0.0\nsamples = 1\nvalue = 58.2"] ;
800 -> 802 ;
803 [label="formation_id_formation_56 <= 0.5\nsquared_error = 0.1\nsamples = 3\nvalue = 61.4"] ;
769 -> 803 ;
804 [label="squared_error = -0.0\nsamples = 1\nvalue = 61.1"] ;
803 -> 804 ;
805 [label="min_depth <= 24285.0\nsquared_error = 0.0\nsamples = 2\nvalue = 61.7"] ;
803 -> 805 ;
806 [label="squared_error = 0.0\nsamples = 1\nvalue = 61.7"] ;
805 -> 806 ;
807 [label="squared_error = 0.0\nsamples = 1\nvalue = 61.7"] ;
805 -> 807 ;
808 [label="surface_weight_on_bit <= 13.8\nsquared_error = 5.8\nsamples = 3\nvalue = 63.4"] ;
768 -> 808 ;
809 [label="squared_error = 0.0\nsamples = 1\nvalue = 66.8"] ;
808 -> 809 ;
810 [label="surface_rpm <= 119.8\nsquared_error = 0.0\nsamples = 2\nvalue = 61.7"] ;
808 -> 810 ;
811 [label="squared_error = 0.0\nsamples = 1\nvalue = 61.6"] ;
810 -> 811 ;
812 [label="squared_error = 0.0\nsamples = 1\nvalue = 61.8"] ;
810 -> 812 ;
813 [label="surface_weight_on_bit <= 11.7\nsquared_error = 20.7\nsamples = 4\nvalue = 45.5"] ;
701 -> 813 ;
814 [label="formation_id_formation_87 <= 0.5\nsquared_error = 7.1\nsamples = 3\nvalue = 43.7"] ;
813 -> 814 ;
815 [label="squared_error = 0.0\nsamples = 1\nvalue = 38.4"] ;
814 -> 815 ;
816 [label="min_depth <= 28545.0\nsquared_error = 0.1\nsamples = 2\nvalue = 45.1"] ;
814 -> 816 ;
817 [label="squared_error = 0.0\nsamples = 1\nvalue = 44.8"] ;
816 -> 817 ;
818 [label="squared_error = 0.0\nsamples = 1\nvalue = 45.4"] ;
816 -> 818 ;
819 [label="squared_error = 0.0\nsamples = 1\nvalue = 54.0"] ;
813 -> 819 ;
820 [label="surface_weight_on_bit <= 10.5\nsquared_error = 838.8\nsamples = 4\nvalue = 73.0"] ;
700 -> 820 ;
821 [label="squared_error = 0.0\nsamples = 1\nvalue = 132.5"] ;
820 -> 821 ;
822 [label="surface_rpm <= 119.7\nsquared_error = 155.6\nsamples = 3\nvalue = 61.0"] ;
820 -> 822 ;
823 [label="max_depth <= 27089.5\nsquared_error = 0.0\nsamples = 2\nvalue = 54.8"] ;
822 -> 823 ;
824 [label="squared_error = 0.0\nsamples = 1\nvalue = 54.5"] ;
823 -> 824 ;
825 [label="squared_error = -0.0\nsamples = 1\nvalue = 54.9"] ;
823 -> 825 ;
826 [label="squared_error = 0.0\nsamples = 1\nvalue = 86.0"] ;
822 -> 826 ;
827 [label="surface_weight_on_bit <= 31.1\nsquared_error = 2.6\nsamples = 2\nvalue = 87.3"] ;
275 -> 827 ;
828 [label="squared_error = 0.0\nsamples = 1\nvalue = 85.7"] ;
827 -> 828 ;
829 [label="squared_error = 0.0\nsamples = 1\nvalue = 88.9"] ;
827 -> 829 ;
830 [label="max_depth <= 27809.2\nsquared_error = 119.5\nsamples = 22\nvalue = 37.4"] ;
274 -> 830 ;
831 [label="surface_weight_on_bit <= 24.7\nsquared_error = 77.3\nsamples = 18\nvalue = 34.5"] ;
830 -> 831 ;
832 [label="surface_weight_on_bit <= 15.3\nsquared_error = 48.3\nsamples = 17\nvalue = 36.3"] ;
831 -> 832 ;
833 [label="min_depth <= 26520.0\nsquared_error = 7.3\nsamples = 4\nvalue = 42.0"] ;
832 -> 833 ;
834 [label="squared_error = 0.0\nsamples = 1\nvalue = 36.8"] ;
833 -> 834 ;
835 [label="surface_weight_on_bit <= 14.6\nsquared_error = 0.6\nsamples = 3\nvalue = 43.4"] ;
833 -> 835 ;
836 [label="surface_weight_on_bit <= 12.6\nsquared_error = 0.2\nsamples = 2\nvalue = 43.9"] ;
835 -> 836 ;
837 [label="squared_error = 0.0\nsamples = 1\nvalue = 44.8"] ;
836 -> 837 ;
838 [label="squared_error = 0.0\nsamples = 1\nvalue = 43.6"] ;
836 -> 838 ;
839 [label="squared_error = 0.0\nsamples = 1\nvalue = 42.5"] ;
835 -> 839 ;
840 [label="max_depth <= 27524.5\nsquared_error = 44.6\nsamples = 13\nvalue = 33.6"] ;
832 -> 840 ;
841 [label="formation_id_formation_191 <= 0.5\nsquared_error = 31.3\nsamples = 11\nvalue = 35.6"] ;
840 -> 841 ;
842 [label="surface_weight_on_bit <= 21.9\nsquared_error = 23.7\nsamples = 10\nvalue = 34.8"] ;
841 -> 842 ;
843 [label="surface_weight_on_bit <= 20.9\nsquared_error = 16.1\nsamples = 6\nvalue = 32.6"] ;
842 -> 843 ;
844 [label="surface_rpm <= 120.4\nsquared_error = 6.5\nsamples = 5\nvalue = 33.8"] ;
843 -> 844 ;
845 [label="max_depth <= 27359.5\nsquared_error = 1.3\nsamples = 2\nvalue = 35.8"] ;
844 -> 845 ;
846 [label="squared_error = 0.0\nsamples = 1\nvalue = 36.9"] ;
845 -> 846 ;
847 [label="squared_error = 0.0\nsamples = 1\nvalue = 34.7"] ;
845 -> 847 ;
848 [label="surface_rpm <= 120.4\nsquared_error = 3.4\nsamples = 3\nvalue = 31.7"] ;
844 -> 848 ;
849 [label="squared_error = 0.0\nsamples = 1\nvalue = 28.5"] ;
848 -> 849 ;
850 [label="min_depth <= 27090.0\nsquared_error = 0.0\nsamples = 2\nvalue = 32.8"] ;
848 -> 850 ;
851 [label="squared_error = 0.0\nsamples = 1\nvalue = 32.8"] ;
850 -> 851 ;
852 [label="squared_error = 0.0\nsamples = 1\nvalue = 32.8"] ;
850 -> 852 ;
853 [label="squared_error = 0.0\nsamples = 1\nvalue = 23.6"] ;
843 -> 853 ;
854 [label="formation_id_formation_188 <= 0.5\nsquared_error = 19.7\nsamples = 4\nvalue = 37.6"] ;
842 -> 854 ;
855 [label="formation_id_formation_187 <= 0.5\nsquared_error = 5.9\nsamples = 2\nvalue = 42.4"] ;
854 -> 855 ;
856 [label="squared_error = 0.0\nsamples = 1\nvalue = 40.7"] ;
855 -> 856 ;
857 [label="squared_error = 0.0\nsamples = 1\nvalue = 45.8"] ;
855 -> 857 ;
858 [label="min_depth <= 27120.0\nsquared_error = 0.1\nsamples = 2\nvalue = 34.0"] ;
854 -> 858 ;
859 [label="squared_error = 0.0\nsamples = 1\nvalue = 33.8"] ;
858 -> 859 ;
860 [label="squared_error = 0.0\nsamples = 1\nvalue = 34.3"] ;
858 -> 860 ;
861 [label="squared_error = -0.0\nsamples = 1\nvalue = 47.6"] ;
841 -> 861 ;
862 [label="max_depth <= 27659.5\nsquared_error = 10.8\nsamples = 2\nvalue = 25.0"] ;
840 -> 862 ;
863 [label="squared_error = 0.0\nsamples = 1\nvalue = 21.7"] ;
862 -> 863 ;
864 [label="squared_error = -0.0\nsamples = 1\nvalue = 28.3"] ;
862 -> 864 ;
865 [label="squared_error = 0.0\nsamples = 1\nvalue = 16.0"] ;
831 -> 865 ;
866 [label="surface_weight_on_bit <= 15.5\nsquared_error = 33.7\nsamples = 4\nvalue = 54.1"] ;
830 -> 866 ;
867 [label="surface_rpm <= 120.4\nsquared_error = 2.8\nsamples = 3\nvalue = 58.0"] ;
866 -> 867 ;
868 [label="squared_error = 0.0\nsamples = 1\nvalue = 60.9"] ;
867 -> 868 ;
869 [label="surface_weight_on_bit <= 12.0\nsquared_error = 0.0\nsamples = 2\nvalue = 57.1"] ;
867 -> 869 ;
870 [label="squared_error = 0.0\nsamples = 1\nvalue = 57.4"] ;
869 -> 870 ;
871 [label="squared_error = 0.0\nsamples = 1\nvalue = 56.9"] ;
869 -> 871 ;
872 [label="squared_error = -0.0\nsamples = 1\nvalue = 46.1"] ;
866 -> 872 ;
873 [label="bit_model_id_bit_model_31 <= 0.5\nsquared_error = 244.6\nsamples = 144\nvalue = 61.2"] ;
273 -> 873 ;
874 [label="bit_model_id_bit_model_28 <= 0.5\nsquared_error = 173.6\nsamples = 108\nvalue = 57.4"] ;
873 -> 874 ;
875 [label="max_depth <= 27370.5\nsquared_error = 144.6\nsamples = 107\nvalue = 57.0"] ;
874 -> 875 ;
876 [label="formation_id_formation_3 <= 0.5\nsquared_error = 173.2\nsamples = 67\nvalue = 54.0"] ;
875 -> 876 ;
877 [label="bit_model_id_bit_model_1 <= 0.5\nsquared_error = 152.0\nsamples = 66\nvalue = 52.8"] ;
876 -> 877 ;
878 [label="formation_id_formation_141 <= 0.5\nsquared_error = 130.9\nsamples = 65\nvalue = 52.0"] ;
877 -> 878 ;
879 [label="max_depth <= 26924.5\nsquared_error = 118.9\nsamples = 64\nvalue = 52.7"] ;
878 -> 879 ;
880 [label="surface_rpm <= 139.9\nsquared_error = 107.2\nsamples = 57\nvalue = 54.1"] ;
879 -> 880 ;
881 [label="max_depth <= 23729.5\nsquared_error = 65.8\nsamples = 9\nvalue = 62.8"] ;
880 -> 881 ;
882 [label="squared_error = 0.0\nsamples = 1\nvalue = 86.6"] ;
881 -> 882 ;
883 [label="surface_weight_on_bit <= 32.4\nsquared_error = 27.0\nsamples = 8\nvalue = 61.1"] ;
881 -> 883 ;
884 [label="formation_id_formation_42 <= 0.5\nsquared_error = 11.2\nsamples = 6\nvalue = 62.6"] ;
883 -> 884 ;
885 [label="surface_rpm <= 139.9\nsquared_error = 5.5\nsamples = 5\nvalue = 63.4"] ;
884 -> 885 ;
886 [label="min_depth <= 26120.2\nsquared_error = 1.8\nsamples = 4\nvalue = 62.4"] ;
885 -> 886 ;
887 [label="squared_error = 0.0\nsamples = 1\nvalue = 59.0"] ;
886 -> 887 ;
888 [label="surface_rpm <= 139.9\nsquared_error = 0.4\nsamples = 3\nvalue = 62.9"] ;
886 -> 888 ;
889 [label="squared_error = 0.0\nsamples = 1\nvalue = 62.3"] ;
888 -> 889 ;
890 [label="bit_model_id_bit_model_3 <= 0.5\nsquared_error = 0.1\nsamples = 2\nvalue = 63.4"] ;
888 -> 890 ;
891 [label="squared_error = -0.0\nsamples = 1\nvalue = 63.2"] ;
890 -> 891 ;
892 [label="squared_error = 0.0\nsamples = 1\nvalue = 64.0"] ;
890 -> 892 ;
893 [label="squared_error = -0.0\nsamples = 1\nvalue = 67.7"] ;
885 -> 893 ;
894 [label="squared_error = -0.0\nsamples = 1\nvalue = 54.4"] ;
884 -> 894 ;
895 [label="surface_rpm <= 139.9\nsquared_error = 17.0\nsamples = 2\nvalue = 51.6"] ;
883 -> 895 ;
896 [label="squared_error = 0.0\nsamples = 1\nvalue = 55.7"] ;
895 -> 896 ;
897 [label="squared_error = -0.0\nsamples = 1\nvalue = 47.4"] ;
895 -> 897 ;
898 [label="max_depth <= 19649.2\nsquared_error = 96.9\nsamples = 48\nvalue = 52.3"] ;
880 -> 898 ;
899 [label="max_depth <= 15149.2\nsquared_error = 9.7\nsamples = 2\nvalue = 73.6"] ;
898 -> 899 ;
900 [label="squared_error = 0.0\nsamples = 1\nvalue = 78.0"] ;
899 -> 900 ;
901 [label="squared_error = 0.0\nsamples = 1\nvalue = 71.4"] ;
899 -> 901 ;
902 [label="max_depth <= 26684.6\nsquared_error = 80.0\nsamples = 46\nvalue = 51.4"] ;
898 -> 902 ;
903 [label="max_depth <= 26294.5\nsquared_error = 60.7\nsamples = 38\nvalue = 49.4"] ;
902 -> 903 ;
904 [label="formation_id_formation_218 <= 0.5\nsquared_error = 37.7\nsamples = 30\nvalue = 51.6"] ;
903 -> 904 ;
905 [label="formation_id_formation_136 <= 0.5\nsquared_error = 30.5\nsamples = 29\nvalue = 51.0"] ;
904 -> 905 ;
906 [label="bit_model_id_bit_model_34 <= 0.5\nsquared_error = 21.9\nsamples = 28\nvalue = 50.3"] ;
905 -> 906 ;
907 [label="min_depth <= 26205.0\nsquared_error = 16.3\nsamples = 25\nvalue = 49.4"] ;
906 -> 907 ;
908 [label="max_depth <= 22619.5\nsquared_error = 11.8\nsamples = 23\nvalue = 48.8"] ;
907 -> 908 ;
909 [label="surface_rpm <= 141.6\nsquared_error = 8.4\nsamples = 17\nvalue = 50.2"] ;
908 -> 909 ;
910 [label="surface_weight_on_bit <= 16.3\nsquared_error = 4.6\nsamples = 16\nvalue = 49.8"] ;
909 -> 910 ;
911 [label="surface_rpm <= 140.3\nsquared_error = 4.9\nsamples = 5\nvalue = 48.5"] ;
910 -> 911 ;
912 [label="surface_weight_on_bit <= 15.0\nsquared_error = 3.0\nsamples = 3\nvalue = 47.5"] ;
911 -> 912 ;
913 [label="formation_id_formation_224 <= 0.5\nsquared_error = 2.5\nsamples = 2\nvalue = 47.9"] ;
912 -> 913 ;
914 [label="squared_error = 0.0\nsamples = 1\nvalue = 47.2"] ;
913 -> 914 ;
915 [label="squared_error = 0.0\nsamples = 1\nvalue = 51.5"] ;
913 -> 915 ;
916 [label="squared_error = -0.0\nsamples = 1\nvalue = 45.3"] ;
912 -> 916 ;
917 [label="surface_rpm <= 140.4\nsquared_error = 2.5\nsamples = 2\nvalue = 50.6"] ;
911 -> 917 ;
918 [label="squared_error = 0.0\nsamples = 1\nvalue = 51.7"] ;
917 -> 918 ;
919 [label="squared_error = -0.0\nsamples = 1\nvalue = 48.4"] ;
917 -> 919 ;
920 [label="max_depth <= 21299.5\nsquared_error = 2.5\nsamples = 11\nvalue = 50.6"] ;
910 -> 920 ;
921 [label="max_depth <= 21239.5\nsquared_error = 0.0\nsamples = 2\nvalue = 48.7"] ;
920 -> 921 ;
922 [label="squared_error = 0.0\nsamples = 1\nvalue = 48.6"] ;
921 -> 922 ;
923 [label="squared_error = 0.0\nsamples = 1\nvalue = 48.7"] ;
921 -> 923 ;
924 [label="surface_rpm <= 140.4\nsquared_error = 1.9\nsamples = 9\nvalue = 51.1"] ;
920 -> 924 ;
925 [label="min_depth <= 21675.0\nsquared_error = 0.6\nsamples = 4\nvalue = 52.0"] ;
924 -> 925 ;
926 [label="formation_id_formation_2 <= 0.5\nsquared_error = 0.3\nsamples = 2\nvalue = 53.0"] ;
925 -> 926 ;
927 [label="squared_error = 0.0\nsamples = 1\nvalue = 52.5"] ;
926 -> 927 ;
928 [label="squared_error = 0.0\nsamples = 1\nvalue = 53.5"] ;
926 -> 928 ;
929 [label="min_depth <= 21735.0\nsquared_error = 0.1\nsamples = 2\nvalue = 51.5"] ;
925 -> 929 ;
930 [label="squared_error = -0.0\nsamples = 1\nvalue = 51.4"] ;
929 -> 930 ;
931 [label="squared_error = -0.0\nsamples = 1\nvalue = 52.0"] ;
929 -> 931 ;
932 [label="surface_weight_on_bit <= 17.9\nsquared_error = 1.7\nsamples = 5\nvalue = 50.3"] ;
924 -> 932 ;
933 [label="squared_error = 0.0\nsamples = 1\nvalue = 52.1"] ;
932 -> 933 ;
934 [label="min_depth <= 21825.0\nsquared_error = 1.2\nsamples = 4\nvalue = 49.9"] ;
932 -> 934 ;
935 [label="min_depth <= 21615.0\nsquared_error = 0.0\nsamples = 3\nvalue = 49.3"] ;
934 -> 935 ;
936 [label="surface_weight_on_bit <= 19.3\nsquared_error = 0.0\nsamples = 2\nvalue = 49.5"] ;
935 -> 936 ;
937 [label="squared_error = 0.0\nsamples = 1\nvalue = 49.4"] ;
936 -> 937 ;
938 [label="squared_error = 0.0\nsamples = 1\nvalue = 49.7"] ;
936 -> 938 ;
939 [label="squared_error = 0.0\nsamples = 1\nvalue = 49.2"] ;
935 -> 939 ;
940 [label="squared_error = 0.0\nsamples = 1\nvalue = 52.1"] ;
934 -> 940 ;
941 [label="squared_error = -0.0\nsamples = 1\nvalue = 60.1"] ;
909 -> 941 ;
942 [label="formation_id_formation_38 <= 0.5\nsquared_error = 2.2\nsamples = 6\nvalue = 45.1"] ;
908 -> 942 ;
943 [label="formation_id_formation_65 <= 0.5\nsquared_error = 1.0\nsamples = 5\nvalue = 45.7"] ;
942 -> 943 ;
944 [label="min_depth <= 23610.0\nsquared_error = 0.5\nsamples = 4\nvalue = 45.4"] ;
943 -> 944 ;
945 [label="squared_error = 0.0\nsamples = 1\nvalue = 46.9"] ;
944 -> 945 ;
946 [label="min_depth <= 26160.0\nsquared_error = 0.0\nsamples = 3\nvalue = 45.0"] ;
944 -> 946 ;
947 [label="area_id_area_0 <= 0.5\nsquared_error = 0.0\nsamples = 2\nvalue = 45.1"] ;
946 -> 947 ;
948 [label="squared_error = -0.0\nsamples = 1\nvalue = 45.1"] ;
947 -> 948 ;
949 [label="squared_error = 0.0\nsamples = 1\nvalue = 45.1"] ;
947 -> 949 ;
950 [label="squared_error = 0.0\nsamples = 1\nvalue = 44.8"] ;
946 -> 950 ;
951 [label="squared_error = -0.0\nsamples = 1\nvalue = 47.6"] ;
943 -> 951 ;
952 [label="squared_error = -0.0\nsamples = 1\nvalue = 42.9"] ;
942 -> 952 ;
953 [label="min_depth <= 26235.0\nsquared_error = 0.0\nsamples = 2\nvalue = 58.9"] ;
907 -> 953 ;
954 [label="squared_error = 0.0\nsamples = 1\nvalue = 58.9"] ;
953 -> 954 ;
955 [label="squared_error = 0.0\nsamples = 1\nvalue = 58.8"] ;
953 -> 955 ;
956 [label="surface_weight_on_bit <= 14.4\nsquared_error = 0.3\nsamples = 3\nvalue = 58.4"] ;
906 -> 956 ;
957 [label="squared_error = 0.0\nsamples = 1\nvalue = 57.6"] ;
956 -> 957 ;
958 [label="formation_id_formation_117 <= 0.5\nsquared_error = 0.0\nsamples = 2\nvalue = 58.7"] ;
956 -> 958 ;
959 [label="squared_error = 0.0\nsamples = 1\nvalue = 58.6"] ;
958 -> 959 ;
960 [label="squared_error = -0.0\nsamples = 1\nvalue = 59.0"] ;
958 -> 960 ;
961 [label="squared_error = -0.0\nsamples = 1\nvalue = 65.0"] ;
905 -> 961 ;
962 [label="squared_error = 0.0\nsamples = 1\nvalue = 65.1"] ;
904 -> 962 ;
963 [label="formation_id_formation_14 <= 0.5\nsquared_error = 43.6\nsamples = 8\nvalue = 39.4"] ;
903 -> 963 ;
964 [label="bit_model_id_bit_model_32 <= 0.5\nsquared_error = 24.6\nsamples = 6\nvalue = 41.9"] ;
963 -> 964 ;
965 [label="min_depth <= 26610.0\nsquared_error = 9.3\nsamples = 5\nvalue = 40.3"] ;
964 -> 965 ;
966 [label="formation_id_formation_190 <= 0.5\nsquared_error = 9.5\nsamples = 4\nvalue = 41.3"] ;
965 -> 966 ;
967 [label="min_depth <= 26310.0\nsquared_error = 3.6\nsamples = 3\nvalue = 40.0"] ;
966 -> 967 ;
968 [label="squared_error = 0.0\nsamples = 1\nvalue = 36.8"] ;
967 -> 968 ;
969 [label="formation_id_formation_194 <= 0.5\nsquared_error = 0.1\nsamples = 2\nvalue = 41.1"] ;
967 -> 969 ;
970 [label="squared_error = 0.0\nsamples = 1\nvalue = 41.5"] ;
969 -> 970 ;
971 [label="squared_error = -0.0\nsamples = 1\nvalue = 40.9"] ;
969 -> 971 ;
972 [label="squared_error = -0.0\nsamples = 1\nvalue = 46.5"] ;
966 -> 972 ;
973 [label="squared_error = 0.0\nsamples = 1\nvalue = 37.8"] ;
965 -> 973 ;
974 [label="squared_error = 0.0\nsamples = 1\nvalue = 52.6"] ;
964 -> 974 ;
975 [label="surface_weight_on_bit <= 27.1\nsquared_error = 2.7\nsamples = 2\nvalue = 29.8"] ;
963 -> 975 ;
976 [label="squared_error = 0.0\nsamples = 1\nvalue = 31.4"] ;
975 -> 976 ;
977 [label="squared_error = -0.0\nsamples = 1\nvalue = 28.1"] ;
975 -> 977 ;
978 [label="max_depth <= 26849.5\nsquared_error = 79.8\nsamples = 8\nvalue = 59.1"] ;
902 -> 978 ;
979 [label="surface_rpm <= 140.9\nsquared_error = 58.9\nsamples = 7\nvalue = 56.9"] ;
978 -> 979 ;
980 [label="drillbit_size <= 10.4\nsquared_error = 19.8\nsamples = 3\nvalue = 48.9"] ;
979 -> 980 ;
981 [label="surface_weight_on_bit <= 16.1\nsquared_error = 0.8\nsamples = 2\nvalue = 51.1"] ;
980 -> 981 ;
982 [label="squared_error = 0.0\nsamples = 1\nvalue = 52.0"] ;
981 -> 982 ;
983 [label="squared_error = 0.0\nsamples = 1\nvalue = 50.2"] ;
981 -> 983 ;
984 [label="squared_error = 0.0\nsamples = 1\nvalue = 40.1"] ;
980 -> 984 ;
985 [label="formation_id_formation_43 <= 0.5\nsquared_error = 7.4\nsamples = 4\nvalue = 62.7"] ;
979 -> 985 ;
986 [label="min_depth <= 26745.0\nsquared_error = 1.3\nsamples = 3\nvalue = 64.9"] ;
985 -> 986 ;
987 [label="surface_weight_on_bit <= 19.1\nsquared_error = 1.1\nsamples = 2\nvalue = 65.3"] ;
986 -> 987 ;
988 [label="squared_error = 0.0\nsamples = 1\nvalue = 63.8"] ;
987 -> 988 ;
989 [label="squared_error = 0.0\nsamples = 1\nvalue = 66.1"] ;
987 -> 989 ;
990 [label="squared_error = -0.0\nsamples = 1\nvalue = 63.7"] ;
986 -> 990 ;
991 [label="squared_error = 0.0\nsamples = 1\nvalue = 59.7"] ;
985 -> 991 ;
992 [label="squared_error = -0.0\nsamples = 1\nvalue = 72.4"] ;
978 -> 992 ;
993 [label="max_depth <= 27265.5\nsquared_error = 81.1\nsamples = 7\nvalue = 42.3"] ;
879 -> 993 ;
994 [label="formation_id_formation_45 <= 0.5\nsquared_error = 59.7\nsamples = 6\nvalue = 39.8"] ;
993 -> 994 ;
995 [label="surface_rpm <= 140.1\nsquared_error = 21.9\nsamples = 5\nvalue = 37.7"] ;
994 -> 995 ;
996 [label="bit_model_id_bit_model_3 <= 0.5\nsquared_error = 1.7\nsamples = 2\nvalue = 33.7"] ;
995 -> 996 ;
997 [label="squared_error = 0.0\nsamples = 1\nvalue = 36.0"] ;
996 -> 997 ;
998 [label="squared_error = 0.0\nsamples = 1\nvalue = 33.0"] ;
996 -> 998 ;
999 [label="surface_rpm <= 140.4\nsquared_error = 15.8\nsamples = 3\nvalue = 40.8"] ;
995 -> 999 ;
1000 [label="surface_weight_on_bit <= 20.3\nsquared_error = 1.0\nsamples = 2\nvalue = 42.7"] ;
999 -> 1000 ;
1001 [label="squared_error = 0.0\nsamples = 1\nvalue = 43.8"] ;
1000 -> 1001 ;
1002 [label="squared_error = -0.0\nsamples = 1\nvalue = 41.7"] ;
1000 -> 1002 ;
1003 [label="squared_error = -0.0\nsamples = 1\nvalue = 33.1"] ;
999 -> 1003 ;
1004 [label="squared_error = -0.0\nsamples = 1\nvalue = 58.7"] ;
994 -> 1004 ;
1005 [label="squared_error = -0.0\nsamples = 1\nvalue = 54.8"] ;
993 -> 1005 ;
1006 [label="squared_error = 0.0\nsamples = 1\nvalue = 29.4"] ;
878 -> 1006 ;
1007 [label="squared_error = 0.0\nsamples = 1\nvalue = 81.9"] ;
877 -> 1007 ;
1008 [label="squared_error = 0.0\nsamples = 1\nvalue = 78.3"] ;
876 -> 1008 ;
1009 [label="surface_rpm <= 140.0\nsquared_error = 54.1\nsamples = 40\nvalue = 62.1"] ;
875 -> 1009 ;
1010 [label="formation_id_formation_256 <= 0.5\nsquared_error = 51.2\nsamples = 20\nvalue = 65.8"] ;
1009 -> 1010 ;
1011 [label="max_depth <= 28244.5\nsquared_error = 36.3\nsamples = 17\nvalue = 63.6"] ;
1010 -> 1011 ;
1012 [label="surface_rpm <= 139.9\nsquared_error = 34.0\nsamples = 7\nvalue = 68.1"] ;
1011 -> 1012 ;
1013 [label="surface_weight_on_bit <= 23.9\nsquared_error = 18.7\nsamples = 6\nvalue = 66.7"] ;
1012 -> 1013 ;
1014 [label="max_depth <= 27824.5\nsquared_error = 10.6\nsamples = 5\nvalue = 67.8"] ;
1013 -> 1014 ;
1015 [label="min_depth <= 27585.0\nsquared_error = 3.7\nsamples = 3\nvalue = 71.7"] ;
1014 -> 1015 ;
1016 [label="squared_error = 0.0\nsamples = 1\nvalue = 69.1"] ;
1015 -> 1016 ;
1017 [label="surface_rpm <= 139.9\nsquared_error = 0.7\nsamples = 2\nvalue = 72.9"] ;
1015 -> 1017 ;
1018 [label="squared_error = 0.0\nsamples = 1\nvalue = 72.1"] ;
1017 -> 1018 ;
1019 [label="squared_error = -0.0\nsamples = 1\nvalue = 73.8"] ;
1017 -> 1019 ;
1020 [label="formation_id_formation_166 <= 0.5\nsquared_error = 0.4\nsamples = 2\nvalue = 65.5"] ;
1014 -> 1020 ;
1021 [label="squared_error = 0.0\nsamples = 1\nvalue = 66.8"] ;
1020 -> 1021 ;
1022 [label="squared_error = 0.0\nsamples = 1\nvalue = 65.2"] ;
1020 -> 1022 ;
1023 [label="squared_error = -0.0\nsamples = 1\nvalue = 58.1"] ;
1013 -> 1023 ;
1024 [label="squared_error = 0.0\nsamples = 1\nvalue = 80.5"] ;
1012 -> 1024 ;
1025 [label="formation_id_formation_182 <= 0.5\nsquared_error = 17.5\nsamples = 10\nvalue = 60.8"] ;
1011 -> 1025 ;
1026 [label="surface_weight_on_bit <= 28.3\nsquared_error = 7.2\nsamples = 7\nvalue = 62.3"] ;
1025 -> 1026 ;
1027 [label="formation_id_formation_175 <= 0.5\nsquared_error = 4.5\nsamples = 6\nvalue = 61.6"] ;
1026 -> 1027 ;
1028 [label="formation_id_formation_247 <= 0.5\nsquared_error = 0.1\nsamples = 5\nvalue = 62.5"] ;
1027 -> 1028 ;
1029 [label="surface_rpm <= 139.9\nsquared_error = 0.0\nsamples = 3\nvalue = 62.9"] ;
1028 -> 1029 ;
1030 [label="surface_rpm <= 139.9\nsquared_error = 0.0\nsamples = 2\nvalue = 63.0"] ;
1029 -> 1030 ;
1031 [label="squared_error = 0.0\nsamples = 1\nvalue = 63.0"] ;
1030 -> 1031 ;
1032 [label="squared_error = 0.0\nsamples = 1\nvalue = 63.0"] ;
1030 -> 1032 ;
1033 [label="squared_error = -0.0\nsamples = 1\nvalue = 62.7"] ;
1029 -> 1033 ;
1034 [label="min_depth <= 28380.0\nsquared_error = 0.0\nsamples = 2\nvalue = 62.2"] ;
1028 -> 1034 ;
1035 [label="squared_error = 0.0\nsamples = 1\nvalue = 62.2"] ;
1034 -> 1035 ;
1036 [label="squared_error = -0.0\nsamples = 1\nvalue = 62.3"] ;
1034 -> 1036 ;
1037 [label="squared_error = -0.0\nsamples = 1\nvalue = 57.1"] ;
1027 -> 1037 ;
1038 [label="squared_error = 0.0\nsamples = 1\nvalue = 66.7"] ;
1026 -> 1038 ;
1039 [label="max_depth <= 29234.5\nsquared_error = 8.1\nsamples = 3\nvalue = 54.2"] ;
1025 -> 1039 ;
1040 [label="surface_rpm <= 139.9\nsquared_error = 0.8\nsamples = 2\nvalue = 52.3"] ;
1039 -> 1040 ;
1041 [label="squared_error = 0.0\nsamples = 1\nvalue = 53.2"] ;
1040 -> 1041 ;
1042 [label="squared_error = 0.0\nsamples = 1\nvalue = 51.4"] ;
1040 -> 1042 ;
1043 [label="squared_error = -0.0\nsamples = 1\nvalue = 58.1"] ;
1039 -> 1043 ;
1044 [label="surface_weight_on_bit <= 26.7\nsquared_error = 2.6\nsamples = 3\nvalue = 75.4"] ;
1010 -> 1044 ;
1045 [label="min_depth <= 28905.0\nsquared_error = 1.2\nsamples = 2\nvalue = 74.0"] ;
1044 -> 1045 ;
1046 [label="squared_error = 0.0\nsamples = 1\nvalue = 72.5"] ;
1045 -> 1046 ;
1047 [label="squared_error = 0.0\nsamples = 1\nvalue = 74.7"] ;
1045 -> 1047 ;
1048 [label="squared_error = -0.0\nsamples = 1\nvalue = 76.8"] ;
1044 -> 1048 ;
1049 [label="surface_rpm <= 141.1\nsquared_error = 28.7\nsamples = 20\nvalue = 58.3"] ;
1009 -> 1049 ;
1050 [label="formation_id_formation_247 <= 0.5\nsquared_error = 31.2\nsamples = 13\nvalue = 56.2"] ;
1049 -> 1050 ;
1051 [label="formation_id_formation_169 <= 0.5\nsquared_error = 21.9\nsamples = 11\nvalue = 55.1"] ;
1050 -> 1051 ;
1052 [label="surface_weight_on_bit <= 18.2\nsquared_error = 14.4\nsamples = 10\nvalue = 55.7"] ;
1051 -> 1052 ;
1053 [label="max_depth <= 28724.5\nsquared_error = 6.4\nsamples = 4\nvalue = 52.7"] ;
1052 -> 1053 ;
1054 [label="max_depth <= 27929.5\nsquared_error = 4.0\nsamples = 3\nvalue = 53.4"] ;
1053 -> 1054 ;
1055 [label="squared_error = 0.0\nsamples = 1\nvalue = 49.0"] ;
1054 -> 1055 ;
1056 [label="drillbit_size <= 10.4\nsquared_error = 0.1\nsamples = 2\nvalue = 54.3"] ;
1054 -> 1056 ;
1057 [label="squared_error = 0.0\nsamples = 1\nvalue = 54.7"] ;
1056 -> 1057 ;
1058 [label="squared_error = -0.0\nsamples = 1\nvalue = 54.1"] ;
1056 -> 1058 ;
1059 [label="squared_error = 0.0\nsamples = 1\nvalue = 48.5"] ;
1053 -> 1059 ;
1060 [label="formation_id_formation_175 <= 0.5\nsquared_error = 9.2\nsamples = 6\nvalue = 57.9"] ;
1052 -> 1060 ;
1061 [label="formation_id_formation_180 <= 0.5\nsquared_error = 3.0\nsamples = 5\nvalue = 59.2"] ;
1060 -> 1061 ;
1062 [label="surface_rpm <= 140.0\nsquared_error = 1.0\nsamples = 4\nvalue = 58.6"] ;
1061 -> 1062 ;
1063 [label="squared_error = 0.0\nsamples = 1\nvalue = 59.5"] ;
1062 -> 1063 ;
1064 [label="formation_id_formation_251 <= 0.5\nsquared_error = 0.7\nsamples = 3\nvalue = 57.9"] ;
1062 -> 1064 ;
1065 [label="bit_model_id_bit_model_37 <= 0.5\nsquared_error = 0.0\nsamples = 2\nvalue = 57.4"] ;
1064 -> 1065 ;
1066 [label="squared_error = 0.0\nsamples = 1\nvalue = 57.5"] ;
1065 -> 1066 ;
1067 [label="squared_error = -0.0\nsamples = 1\nvalue = 57.4"] ;
1065 -> 1067 ;
1068 [label="squared_error = 0.0\nsamples = 1\nvalue = 59.4"] ;
1064 -> 1068 ;
1069 [label="squared_error = 0.0\nsamples = 1\nvalue = 63.0"] ;
1061 -> 1069 ;
1070 [label="squared_error = 0.0\nsamples = 1\nvalue = 52.7"] ;
1060 -> 1070 ;
1071 [label="squared_error = 0.0\nsamples = 1\nvalue = 43.2"] ;
1051 -> 1071 ;
1072 [label="surface_rpm <= 140.0\nsquared_error = 2.1\nsamples = 2\nvalue = 66.3"] ;
1050 -> 1072 ;
1073 [label="squared_error = 0.0\nsamples = 1\nvalue = 67.7"] ;
1072 -> 1073 ;
1074 [label="squared_error = 0.0\nsamples = 1\nvalue = 64.8"] ;
1072 -> 1074 ;
1075 [label="formation_id_formation_168 <= 0.5\nsquared_error = 4.6\nsamples = 7\nvalue = 61.8"] ;
1049 -> 1075 ;
1076 [label="surface_rpm <= 141.2\nsquared_error = 2.9\nsamples = 6\nvalue = 62.7"] ;
1075 -> 1076 ;
1077 [label="surface_rpm <= 141.2\nsquared_error = 0.1\nsamples = 3\nvalue = 61.9"] ;
1076 -> 1077 ;
1078 [label="surface_weight_on_bit <= 24.9\nsquared_error = 0.0\nsamples = 2\nvalue = 62.0"] ;
1077 -> 1078 ;
1079 [label="squared_error = 0.0\nsamples = 1\nvalue = 62.2"] ;
1078 -> 1079 ;
1080 [label="squared_error = 0.0\nsamples = 1\nvalue = 61.9"] ;
1078 -> 1080 ;
1081 [label="squared_error = -0.0\nsamples = 1\nvalue = 61.4"] ;
1077 -> 1081 ;
1082 [label="surface_rpm <= 141.2\nsquared_error = 4.5\nsamples = 3\nvalue = 64.4"] ;
1076 -> 1082 ;
1083 [label="formation_id_formation_169 <= 0.5\nsquared_error = 0.4\nsamples = 2\nvalue = 65.8"] ;
1082 -> 1083 ;
1084 [label="squared_error = 0.0\nsamples = 1\nvalue = 65.2"] ;
1083 -> 1084 ;
1085 [label="squared_error = 0.0\nsamples = 1\nvalue = 66.4"] ;
1083 -> 1085 ;
1086 [label="squared_error = -0.0\nsamples = 1\nvalue = 61.5"] ;
1082 -> 1086 ;
1087 [label="squared_error = -0.0\nsamples = 1\nvalue = 59.1"] ;
1075 -> 1087 ;
1088 [label="squared_error = 0.0\nsamples = 1\nvalue = 129.5"] ;
874 -> 1088 ;
1089 [label="formation_id_formation_186 <= 0.5\nsquared_error = 262.9\nsamples = 36\nvalue = 74.7"] ;
873 -> 1089 ;
1090 [label="formation_id_formation_195 <= 0.5\nsquared_error = 190.2\nsamples = 34\nvalue = 72.6"] ;
1089 -> 1090 ;
1091 [label="formation_id_formation_165 <= 0.5\nsquared_error = 129.1\nsamples = 29\nvalue = 69.4"] ;
1090 -> 1091 ;
1092 [label="formation_id_formation_81 <= 0.5\nsquared_error = 91.7\nsamples = 26\nvalue = 71.3"] ;
1091 -> 1092 ;
1093 [label="formation_id_formation_46 <= 0.5\nsquared_error = 60.0\nsamples = 22\nvalue = 73.6"] ;
1092 -> 1093 ;
1094 [label="max_depth <= 28199.8\nsquared_error = 34.2\nsamples = 21\nvalue = 72.7"] ;
1093 -> 1094 ;
1095 [label="surface_weight_on_bit <= 34.5\nsquared_error = 19.6\nsamples = 14\nvalue = 76.3"] ;
1094 -> 1095 ;
1096 [label="surface_rpm <= 140.9\nsquared_error = 7.3\nsamples = 5\nvalue = 80.2"] ;
1095 -> 1096 ;
1097 [label="surface_rpm <= 140.0\nsquared_error = 3.1\nsamples = 4\nvalue = 79.1"] ;
1096 -> 1097 ;
1098 [label="squared_error = 0.0\nsamples = 1\nvalue = 81.4"] ;
1097 -> 1098 ;
1099 [label="surface_weight_on_bit <= 23.8\nsquared_error = 1.8\nsamples = 3\nvalue = 78.3"] ;
1097 -> 1099 ;
1100 [label="squared_error = 0.0\nsamples = 1\nvalue = 80.2"] ;
1099 -> 1100 ;
1101 [label="surface_rpm <= 140.4\nsquared_error = 0.0\nsamples = 2\nvalue = 77.4"] ;
1099 -> 1101 ;
1102 [label="squared_error = 0.0\nsamples = 1\nvalue = 77.5"] ;
1101 -> 1102 ;
1103 [label="squared_error = 0.0\nsamples = 1\nvalue = 77.3"] ;
1101 -> 1103 ;
1104 [label="squared_error = -0.0\nsamples = 1\nvalue = 84.6"] ;
1096 -> 1104 ;
1105 [label="surface_weight_on_bit <= 35.8\nsquared_error = 16.7\nsamples = 9\nvalue = 74.9"] ;
1095 -> 1105 ;
1106 [label="surface_rpm <= 140.8\nsquared_error = 0.1\nsamples = 2\nvalue = 71.9"] ;
1105 -> 1106 ;
